754 100 19327
equivalent -0.052400920540094376 0.09483597427606583 0.12339535355567932 -0.08801085501909256 0.08562595397233963 -0.10450750589370728 0.14465415477752686 -0.10312527418136597 -0.053159188479185104 -0.08448601514101028 0.008874204941093922 0.05178537592291832 -0.22828790545463562 0.0774909034371376 0.08144284784793854 -0.01294483058154583 -0.04799487069249153 -0.13313452899456024 -0.2393822968006134 -0.10751432180404663 0.19347970187664032 -0.02963985688984394 -0.043010540306568146 0.15163010358810425 -0.0401032418012619 -0.247303307056427 -0.005261942744255066 0.012875705026090145 -0.13008049130439758 -0.17026445269584656 -0.07628940790891647 -0.00524294376373291 0.0759810209274292 -0.07445918023586273 0.020015692338347435 0.05466001108288765 -0.031098108738660812 0.13036932051181793 -0.09336662292480469 0.023683883249759674 0.06276009231805801 -0.00799266342073679 0.012708009220659733 0.19127652049064636 -0.011386016383767128 0.006440467666834593 0.13686498999595642 0.004724414553493261 0.0631476640701294 -0.05032072961330414 -0.05212542042136192 -0.045250605791807175 -0.03295856714248657 0.09677992761135101 0.1937815397977829 0.13035818934440613 -0.10863449424505234 -0.05082382634282112 -0.017704930156469345 -0.15235313773155212 -0.05574289336800575 -0.024007214233279228 -0.12165942788124084 -0.012693801894783974 -0.005539773032069206 -0.06136482581496239 0.02395688183605671 -0.13653753697872162 -0.03139335289597511 -0.07148155570030212 -0.09041187167167664 0.06681665778160095 -0.07797618955373764 -0.029191551730036736 0.09457194805145264 0.180559903383255 -0.13903683423995972 -0.06592762470245361 0.01548569742590189 -0.17737755179405212 0.08651939779520035 -0.08224441111087799 -0.04584226384758949 0.022731799632310867 -0.003951460123062134 -0.08803273737430573 -0.1374662220478058 -0.08287883549928665 -0.11303960531949997 0.05085768550634384 0.18216553330421448 -0.0405348464846611 -0.026677243411540985 -0.0223967507481575 0.1310223788022995 0.1632632613182068 -0.10654094070196152 0.10732322186231613 -0.11149878799915314 -0.100358746945858
parent -0.15536099672317505 0.022231651470065117 0.09565460681915283 0.15938526391983032 0.16527573764324188 -0.0028233204502612352 -0.042966775596141815 -0.2954731583595276 -0.005027451552450657 -0.07263442128896713 -0.11299262940883636 0.04623338580131531 0.08864004909992218 0.20556867122650146 -0.022033153101801872 0.08463305234909058 -0.016225509345531464 -0.057726964354515076 -0.1460544317960739 0.03440520167350769 -0.03263193368911743 -0.13352157175540924 -0.049198783934116364 0.17534512281417847 0.05654723197221756 -0.19537049531936646 -0.017954843118786812 0.005020509473979473 -0.03322870656847954 0.009261729195713997 -6.339102983474731E-4 -0.03214554488658905 -0.02291051484644413 -0.29081982374191284 -0.06088510528206825 0.1594797521829605 0.14198347926139832 0.13016538321971893 0.03294774517416954 0.19625236093997955 0.20358934998512268 -0.028040051460266113 0.01881387270987034 -0.01944814808666706 0.046403661370277405 -0.10862236469984055 0.007144602481275797 0.03975703567266464 0.1578068733215332 -0.05475453659892082 0.052244074642658234 0.09284831583499908 -0.0015176319284364581 0.10213913768529892 0.07695787400007248 0.017472494393587112 -0.18497711420059204 0.06972391158342361 -9.329433087259531E-4 -0.1662694215774536 -0.05655111372470856 0.05848218873143196 0.044633302837610245 -0.060400474816560745 0.08733173459768295 -0.02873671054840088 0.00857025757431984 -0.02324230596423149 0.17754070460796356 -0.024839753285050392 0.0011212109820917249 0.07501055300235748 -0.13149672746658325 0.09790157526731491 -0.03818269073963165 -0.03515404462814331 0.10895092040300369 -0.06942050158977509 -0.14210976660251617 -0.10094073414802551 0.01987377181649208 0.06290538609027863 -0.01756969839334488 0.05888339504599571 -0.12198702991008759 0.10561694949865341 0.05092679709196091 0.1078953668475151 -0.020717056468129158 0.027794338762760162 -0.02854980155825615 0.08834411203861237 -0.1981211006641388 -0.02048949897289276 -0.08017893880605698 0.0016696149250492454 -0.08571648597717285 -0.03485827520489693 0.05241798609495163 0.027585815638303757
been -0.06401017308235168 0.04054313898086548 -0.02366349659860134 -0.009784501045942307 0.15269455313682556 0.0883389413356781 9.578301105648279E-4 -0.13990414142608643 -0.06856169551610947 -0.13095790147781372 0.03730080649256706 -0.06268879771232605 -0.1912786364555359 0.26544564962387085 0.14414314925670624 -0.03481217473745346 -0.01244587916880846 -0.06080922111868858 -0.02178316004574299 -0.03299235925078392 -0.027425244450569153 0.03299015387892723 0.06605986505746841 0.18299299478530884 -0.08179187029600143 -0.056860607117414474 -0.03727128729224205 -0.03907560929656029 -0.03236119821667671 -0.006144113838672638 -0.02458697371184826 0.0323222391307354 0.020478885620832443 -0.3031719923019409 -0.02966267243027687 0.07833383977413177 0.15269316732883453 1.5088646614458412E-4 0.13148248195648193 0.21515068411827087 0.06344122439622879 -0.07098320126533508 -8.780445787124336E-4 -0.06399430334568024 0.04129204526543617 0.05507894605398178 -0.054721273481845856 0.06815154105424881 0.09127579629421234 -0.08818688243627548 0.08000922948122025 0.049536820501089096 0.047926679253578186 -0.001889894250780344 0.11756561696529388 0.056843072175979614 -0.2075529247522354 0.17626644670963287 0.04172506928443909 -0.15937528014183044 -0.1520945280790329 0.21092696487903595 0.060308195650577545 0.12046881020069122 0.08762551844120026 -0.1233413964509964 0.09490733593702316 -0.005171453580260277 0.1769532859325409 -9.701483068056405E-4 0.04665939882397652 -0.023118814453482628 -0.010352572426199913 0.13649536669254303 -0.05906835198402405 -0.11196327954530716 -0.07088512182235718 0.029304323717951775 -0.16648194193840027 -0.045195072889328 -0.029550207778811455 0.02473704144358635 0.044372230768203735 -0.06658332794904709 -0.10246024280786514 -0.03900611028075218 0.009390272200107574 -0.032121311873197556 -0.056264135986566544 -0.026670217514038086 -0.059005312621593475 0.0598352774977684 -0.09641037881374359 0.07510477304458618 0.026312798261642456 -0.026086879894137383 -0.0733383446931839 0.2644350826740265 -0.12751750648021698 0.08165132254362106
Caper -0.02996630221605301 0.08751911669969559 -0.02709515392780304 -0.06307266652584076 0.12909860908985138 0.21570876240730286 0.1727527678012848 -0.1104765385389328 -0.027750767767429352 0.03758182376623154 -0.11573054641485214 -0.18596091866493225 -0.026745526120066643 0.05926336720585823 -0.13667051494121552 -0.06430011242628098 -0.045962974429130554 0.09407086670398712 -0.09143657237291336 0.046790868043899536 0.03012770414352417 -0.08127568662166595 0.02690519578754902 0.05496029928326607 0.11262745410203934 -0.008685026317834854 -0.06205907464027405 -0.042107511311769485 0.0224924273788929 -0.13355126976966858 -0.040114231407642365 -0.0035398390609771013 0.01452421210706234 -0.2141551971435547 0.018260838463902473 0.05413040518760681 0.21329183876514435 0.0535469651222229 0.10653946548700333 0.2259654402732849 0.0317736454308033 0.025119857862591743 -0.22600817680358887 0.07475505024194717 -0.20813609659671783 0.1909421980381012 -0.2220621556043625 0.21325179934501648 0.004721585661172867 -0.016328273341059685 0.0635400339961052 -0.10222307592630386 -0.024849750101566315 -0.033066071569919586 -0.06075441092252731 -0.056304335594177246 0.02220379188656807 0.033297158777713776 -0.04662042111158371 -0.03093922883272171 -0.0895523875951767 0.2292303591966629 -0.11851409077644348 0.1691226214170456 -0.08443844318389893 0.042217597365379333 -0.09473706036806107 0.06622441858053207 0.08588594198226929 0.046005114912986755 0.015629328787326813 0.050073400139808655 0.04519995301961899 0.10096587985754013 0.020079433917999268 -0.048577919602394104 0.0031719186808913946 0.03753071650862694 0.18340739607810974 0.1452382653951645 -0.03564408794045448 0.13103891909122467 0.08897776156663895 0.01818573661148548 -0.07575647532939911 0.056422263383865356 0.029014665633440018 0.00928911380469799 -0.078455850481987 -0.06873302161693573 -0.07569726556539536 -0.044846806675195694 -0.10527583211660385 -0.09487912058830261 0.018709661439061165 -0.01869940012693405 -0.054967720061540604 0.1543397456407547 0.020507143810391426 -0.0034227140713483095
probeinconsistenttopping -0.07290448248386383 -0.009130056016147137 0.05113278329372406 -0.15991699695587158 0.10727111995220184 -0.044428061693906784 -0.039036720991134644 -0.09205285459756851 -0.10621900111436844 -0.08382992446422577 -0.0745089203119278 0.020411375910043716 0.03974566608667374 0.11770554631948471 -0.1336505264043808 0.10484858602285385 0.08324938267469406 -0.03429415449500084 -0.1366088092327118 0.06719190627336502 -0.09423600137233734 -0.15616783499717712 -0.09951039403676987 0.16718442738056183 -0.057322368025779724 -0.16875727474689484 -0.057606663554906845 -0.12668395042419434 -0.03570032864809036 0.05415419489145279 -0.0030887024477124214 -0.09732943773269653 -0.05027046427130699 -0.19834698736667633 -0.06925100833177567 0.07236035913228989 0.1960296779870987 0.12395383417606354 0.1092897430062294 0.12672847509384155 0.03735366091132164 0.05697968229651451 -0.17049500346183777 -0.08285030722618103 -0.04697704315185547 -0.1123921275138855 -0.06299036741256714 0.09801404178142548 0.09483957290649414 -0.08157170563936234 -0.12693387269973755 0.006293302867561579 0.06322120875120163 -0.004963167477399111 0.06923061609268188 -0.06261540204286575 -0.1813596487045288 0.180096834897995 0.14303284883499146 -0.2362796813249588 -0.12130171805620193 -0.007945021614432335 -0.0705869048833847 0.021142691373825073 0.11004795134067535 -0.16102305054664612 0.06917176395654678 0.03056234121322632 0.1498594731092453 -0.06269436329603195 0.02772086299955845 0.01736927218735218 -0.029377080500125885 0.16543513536453247 -0.012619582936167717 0.17849841713905334 0.009632332250475883 0.025055523961782455 0.010395500808954239 -0.17137788236141205 0.05613246560096741 -0.02879931777715683 0.020086338743567467 0.020275959745049477 -0.009820316918194294 0.11393333971500397 0.07032763212919235 0.11720624566078186 -0.10187824070453644 -0.038741838186979294 0.002500632544979453 0.05679642781615257 -0.1770855188369751 -0.07595646381378174 0.041197288781404495 -0.047701217234134674 -0.03872832655906677 0.10649848729372025 -0.15584005415439606 0.08083988726139069
Pepper -0.00997934490442276 -0.07456211000680923 -0.16027066111564636 -0.19095879793167114 0.3299080431461334 0.1478734165430069 0.10284275561571121 -0.10450669378042221 -0.0028493136633187532 -0.16960039734840393 -0.05270653963088989 -0.02042422443628311 0.005447735544294119 0.12752151489257812 -0.016971375793218613 0.008396340534090996 -0.013607342727482319 -0.05140959098935127 -0.07899587601423264 0.17826813459396362 0.011268716305494308 -0.01699128746986389 -0.08036723732948303 0.04317691549658775 0.0011696586152538657 -0.13609282672405243 -0.08634207397699356 -0.03669971600174904 -0.07944826036691666 0.029555844143033028 0.008419301360845566 -0.08370939642190933 0.21028418838977814 -0.11184143275022507 -0.1118854507803917 -0.002328417031094432 0.13216346502304077 -0.19936569035053253 0.11785998940467834 0.08760347962379456 -0.026411909610033035 0.08692298084497452 -0.2576983869075775 -0.029783237725496292 -0.11862509697675705 0.09621132910251617 -0.07545571774244308 0.23992925882339478 -0.018794221803545952 0.0200303103774786 0.035676438361406326 -0.11254483461380005 0.07817365229129791 -0.14081120491027832 -0.01362439151853323 -0.05458482354879379 0.12458337098360062 -0.09859072417020798 0.039318524301052094 0.10392749309539795 -0.06929552555084229 0.02572401612997055 0.007352957967668772 -0.15679273009300232 -0.019772158935666084 0.012277093715965748 -0.040192216634750366 0.0376335084438324 -0.08621912449598312 -0.08423380553722382 -0.06660427153110504 -0.01637483760714531 -0.12031790614128113 0.18597574532032013 -0.05520116910338402 -0.1796630471944809 -0.023503456264734268 0.09221172332763672 0.04121224582195282 0.09751835465431213 -0.1073845624923706 -0.05005132779479027 -0.01758415624499321 -0.0435187965631485 0.05365828797221184 -0.07576828449964523 -0.06726212799549103 0.04283032566308975 -0.20282408595085144 -0.0012605123920366168 -0.016602948307991028 0.009593909606337547 -0.06305081397294998 -0.02411804161965847 0.005772444419562817 -0.0035679987631738186 0.04891549050807953 0.07215262949466705 -0.07063816487789154 0.03406558558344841
beef -0.03751467540860176 -0.04945848509669304 -0.07939141243696213 -0.0627453476190567 0.014062831178307533 -0.08670824021100998 0.06646765023469925 0.1824009120464325 -0.1130494624376297 -0.14423678815364838 -0.13179099559783936 0.07226386666297913 0.0996079221367836 0.09677992016077042 -0.009336140006780624 0.03205278143286705 -0.10413392633199692 0.0338265560567379 -0.10699344426393509 0.09198886901140213 0.025803685188293457 0.043331462889909744 -0.11079701036214828 -0.025486549362540245 0.006445311941206455 0.10277140140533447 0.155675008893013 0.03270332142710686 -0.038781821727752686 0.09534309804439545 0.00783673208206892 -0.16783364117145538 -0.030857469886541367 0.09182067960500717 0.15791189670562744 -0.09667567163705826 0.17534403502941132 0.08125550299882889 0.033634964376688004 0.12383836507797241 -0.041265588253736496 0.03638802468776703 -0.09534013271331787 0.01411634124815464 -0.027143921703100204 0.16395686566829681 0.04140176624059677 0.05281445384025574 0.0860210657119751 0.009088815189898014 -0.02191414125263691 -0.08020026981830597 0.0751943588256836 0.07279326021671295 0.14824004471302032 0.12031422555446625 0.12130335718393326 -0.0015134025597944856 -0.10353042185306549 -0.219661146402359 -0.16735059022903442 0.29980820417404175 -0.08963876962661743 0.05310693010687828 -0.0406072773039341 0.1620756983757019 -0.01851200871169567 0.14180468022823334 -0.09768958389759064 -0.06572221964597702 -0.009030291810631752 -5.516415112651885E-4 -0.11602544784545898 0.0764770433306694 0.044101014733314514 0.006483942270278931 0.1024702712893486 -0.043051332235336304 0.02651335299015045 0.027557184919714928 0.08538703620433807 -0.13696837425231934 0.03484165295958519 -0.06905127316713333 0.05753996968269348 -0.05399181321263313 -0.0030304433312267065 -0.08916543424129486 0.16121438145637512 0.16769248247146606 0.19739679992198944 -2.674604766070843E-4 -0.005734798964112997 0.11599203944206238 0.23639869689941406 0.12563341856002808 -0.05812964215874672 0.07134683430194855 0.06404676288366318 0.03503388166427612
http://www.co-ode.org/ontologies/pizza/pizza.owl#TomatoTopping -0.059086330235004425 -0.09599297493696213 0.013420754112303257 -0.059951186180114746 0.02733435668051243 0.13788609206676483 -0.05860227718949318 0.008877359330654144 0.0491051971912384 0.1489659696817398 0.017911113798618317 -0.00325073953717947 0.17473113536834717 -0.026722649112343788 -0.18749886751174927 -0.007911339402198792 0.03717398643493652 0.03270532935857773 -0.11264164000749588 0.13734611868858337 -0.044249024242162704 -0.06197118014097214 -0.035023774951696396 0.10735099017620087 0.12856744229793549 -0.08142995089292526 0.13637012243270874 0.08884450048208237 0.02077041007578373 0.024993835017085075 -0.11923252791166306 0.2748899757862091 0.05555610731244087 -0.06345099210739136 0.048776283860206604 -0.09265405684709549 0.11041384190320969 0.14686691761016846 -0.11911483854055405 0.09971361607313156 -0.13557873666286469 0.04579860344529152 -0.0260152705013752 0.024978211149573326 -0.18905045092105865 0.20859494805335999 -0.013992693275213242 0.16689229011535645 0.04016456380486488 0.07722815871238708 -0.035956960171461105 -0.08052312582731247 -0.16168135404586792 -0.06930433958768845 -0.04107295349240303 0.009639541618525982 0.008294059894979 0.02031538635492325 -0.05114353820681572 0.1579241305589676 0.07847007364034653 0.13384881615638733 -0.1230398640036583 0.19722630083560944 -0.09747304767370224 0.09617283195257187 -0.16141721606254578 0.11162535846233368 0.028316369280219078 -0.010961460880935192 -0.047236308455467224 0.18737353384494781 0.03697723522782326 0.1836666762828827 0.02512490749359131 -0.11215940862894058 0.09125801920890808 -0.02107701450586319 0.020195433869957924 -0.07114503532648087 0.17346878349781036 0.038220010697841644 0.00431890320032835 -0.0647028237581253 -0.08427587896585464 0.06472504884004593 0.017503509297966957 -0.09000744670629501 -0.11598031222820282 -0.027561763301491737 0.11586286127567291 0.033090852200984955 -0.02244305983185768 0.02715918980538845 0.15123555064201355 0.006155671551823616 0.15953466296195984 -0.048798587173223495 0.014369267039000988 -0.14858019351959229
sauce -0.09010028839111328 0.05817076936364174 0.025900688022375107 -0.17641083896160126 0.27919575572013855 -0.12029340863227844 -0.013381215743720531 0.005519098602235317 0.06982749700546265 -0.14201711118221283 -0.11695494502782822 -0.06351836025714874 0.08146234601736069 0.05521075055003166 -0.04116401821374893 -0.0546247623860836 -0.08824153989553452 0.11333184689283371 -0.024483369663357735 0.015085160732269287 -0.16132622957229614 -0.17704595625400543 0.017838070169091225 0.12840808928012848 0.05613229423761368 -0.12340404093265533 -0.1429954171180725 0.09023218601942062 -0.020775416865944862 0.19377557933330536 -0.0913320928812027 -0.03403139114379883 0.170282244682312 -0.034168560057878494 -0.020364034920930862 -0.05693451687693596 0.0084352046251297 -0.24827396869659424 0.1304798424243927 -0.07810898125171661 0.11596833169460297 0.11604008823633194 -0.11952786892652512 0.009412288665771484 -0.028047939762473106 -0.024569762870669365 0.058737270534038544 0.09167663753032684 -0.008917494677007198 -0.002204703399911523 -0.11531978100538254 -0.13978853821754456 -0.07416995614767075 0.0062880730256438255 0.15048882365226746 0.1554429531097412 -0.022808847948908806 -0.007039214018732309 -0.017731070518493652 -0.01841660961508751 -0.0727299153804779 0.09243926405906677 -0.16901811957359314 0.07281172275543213 -0.06542444229125977 0.00418936787173152 -0.01900109462440014 -0.11721312999725342 -0.05432482436299324 0.06090974062681198 -0.024605071172118187 -0.027350783348083496 -0.08059844374656677 -0.01855233497917652 0.01169494353234768 0.03943939134478569 -0.13371650874614716 0.0950365737080574 0.08152012526988983 -0.09341716766357422 -0.2183655947446823 0.012004664167761803 -0.07762067019939423 0.11627600342035294 0.007664224598556757 -0.08386898040771484 -0.11936286091804504 -0.14021851122379303 -0.1046137586236 0.03347017243504524 -0.05197256803512573 -0.08332455158233643 0.20728522539138794 0.16180866956710815 0.04205596074461937 0.12818296253681183 -0.01215896662324667 -0.09093569964170456 0.06666813790798187 -0.044227469712495804
http://www.co-ode.org/ontologies/pizza/pizza.owl#DeepPanBase -0.29954758286476135 -0.07324755936861038 0.1410900503396988 -0.053263578563928604 0.30476781725883484 0.2227276712656021 -0.07810739427804947 -0.08582622557878494 -0.08765555918216705 0.04290444031357765 0.061447612941265106 0.085741326212883 -0.00964704155921936 0.024559272453188896 -0.02951015718281269 0.15545037388801575 0.020200051367282867 -0.12470310926437378 -0.06660035997629166 0.06782449781894684 -0.06334912776947021 -0.10847935825586319 -0.18480558693408966 0.009911245666444302 0.040532417595386505 -0.11313597857952118 -0.019882816821336746 0.016315404325723648 0.015487425960600376 -0.08670397847890854 -0.0898054912686348 0.18114005029201508 0.10816609114408493 -0.10760907083749771 0.13572026789188385 0.0880870521068573 -0.008838282898068428 0.02827078476548195 0.09584904462099075 -0.09113715589046478 0.04515077546238899 -0.028235169127583504 0.040420569479465485 -0.04677233099937439 -0.075778067111969 0.1259041130542755 -0.07233434915542603 0.18636521697044373 -0.03194449469447136 0.0613454133272171 -0.016225242987275124 -0.022327393293380737 -0.060118477791547775 0.1419251263141632 -0.042293090373277664 0.035167645663022995 0.058984991163015366 -0.004192546475678682 0.0035084146074950695 -0.11072935163974762 -0.006059702485799789 -0.028845353052020073 -0.021767569705843925 -0.16490226984024048 0.06068490818142891 -0.007118464447557926 -0.13201387226581573 0.018176937475800514 -0.019362855702638626 0.09615758806467056 -0.14567683637142181 0.043163277208805084 -0.07898309081792831 3.439317224547267E-4 0.005951534956693649 0.0234427098184824 0.12988777458667755 0.1001003310084343 -0.0647256150841713 -0.040747061371803284 -0.025214698165655136 0.1041925922036171 0.11613211780786514 -0.21735632419586182 -0.1490369737148285 0.0175449438393116 -0.04072113707661629 0.020817063748836517 -0.07222412526607513 0.261563241481781 -0.036702729761600494 0.08363941311836243 -0.034071389585733414 -0.01407863199710846 0.04534303396940231 -0.003711814759299159 -0.06970266997814178 -0.07229144871234894 -0.12035273760557175 0.16676244139671326
without 0.009765795432031155 0.04265107214450836 0.027049720287322998 -0.02916131541132927 0.2144649624824524 0.0495985709130764 0.11289434134960175 -0.10780096799135208 -0.04386160150170326 -0.032463524490594864 -0.028215760365128517 0.006323105655610561 0.07587880641222 0.24956949055194855 0.05880739912390709 0.022329527884721756 -0.07425404340028763 0.01794910803437233 -0.10573331266641617 0.028326554223895073 0.0012105562491342425 -0.15453475713729858 0.06520399451255798 0.26144734025001526 -0.041044678539037704 -0.09119351208209991 -0.07687126100063324 -0.11492364853620529 -0.09962978214025497 -0.02402905561029911 0.032309554517269135 0.016108745709061623 -0.01213771291077137 -0.20979270339012146 0.024486660957336426 0.11252608895301819 0.13151423633098602 -0.038971710950136185 0.05430137366056442 0.1847759485244751 0.06241356581449509 0.050620704889297485 -0.05297128111124039 0.07430963218212128 -0.006719642784446478 0.007309370208531618 0.06663433462381363 0.08254615217447281 -0.14093884825706482 -0.04430784657597542 -0.09252442419528961 -0.07781726866960526 0.14536012709140778 -0.032607149332761765 -0.015157616697251797 0.03380904346704483 -0.06656145304441452 0.15298707783222198 -0.008089953102171421 -0.12208720296621323 -0.03209909796714783 0.19445893168449402 -0.03909152001142502 0.1810397058725357 0.2058929055929184 -0.07951952517032623 -0.095900759100914 0.11528397351503372 0.2514950633049011 -0.040148764848709106 -0.034429881721735 -0.14218470454216003 -0.10592266917228699 1.0011208360083401E-4 0.0020064059644937515 0.019801413640379906 -0.15253688395023346 0.039946772158145905 -0.03126152604818344 -0.1624327003955841 0.03091428056359291 0.006115745287388563 -0.0176116693764925 0.11579935252666473 0.05701001361012459 -0.03548430651426315 0.09537460654973984 0.062091004103422165 -0.05413784831762314 -0.011571804992854595 -0.14149664342403412 -0.031331226229667664 -0.23029553890228271 -0.11791794002056122 -0.07564055919647217 -0.12812606990337372 -0.08296462893486023 0.054243702441453934 -0.026245811954140663 0.008212286047637463
setting -0.16683751344680786 0.09813131392002106 0.0765390545129776 -0.2511785626411438 0.13424725830554962 0.1327599585056305 0.00455339252948761 -0.17575544118881226 -0.13646961748600006 0.06313258409500122 -0.005247901193797588 -0.02317454293370247 0.10425017029047012 0.352237343788147 -0.19216112792491913 0.12229645997285843 0.0019207532750442624 -0.19587023556232452 -0.12990276515483856 0.1344141811132431 -0.0177936889231205 -0.17623692750930786 -0.03861352801322937 0.09398578107357025 -0.029515571892261505 -0.12386731803417206 0.03440988436341286 0.047251809388399124 -0.060175493359565735 -0.07234388589859009 0.008665179833769798 0.07078678905963898 0.04259021580219269 -0.1148044690489769 -0.058109935373067856 -0.003913552965968847 -0.01496502198278904 0.151166632771492 0.014453476294875145 0.17990735173225403 0.024930287152528763 -0.133931964635849 0.06591872870922089 -0.05210376903414726 -0.06667739152908325 -0.13666944205760956 0.033281244337558746 -0.12099502235651016 0.13319839537143707 0.07188812643289566 0.03149843588471413 -0.0528118871152401 0.03286860138177872 0.105094313621521 0.06421922147274017 -0.006485884543508291 -0.017697129398584366 0.06389880180358887 0.013797761872410774 0.021421296522021294 -0.1645326018333435 0.04090269282460213 0.1316758245229721 0.020611386746168137 -0.016978926956653595 -0.09935961663722992 -0.002935787895694375 0.0262688510119915 -0.01445175800472498 -0.06972824782133102 0.03692614659667015 0.06697618216276169 -0.10034135729074478 0.08162941783666611 -0.018358217552304268 -0.00848850142210722 0.004899312276393175 0.0699596032500267 -0.20879554748535156 -0.19699911773204803 0.11798019707202911 0.017614424228668213 0.035284169018268585 0.07927535474300385 -0.0967537984251976 0.024481382220983505 0.045561496168375015 0.02376730926334858 0.18351055681705475 -0.020957449451088905 -0.05232446640729904 0.06351831555366516 -0.00719978753477335 -0.08364725857973099 0.013192085549235344 -0.13245245814323425 -0.006014058366417885 0.032778892666101456 -0.07819747179746628 0.043628446757793427
these -0.06170913949608803 -0.0038520905654877424 -0.09569092839956284 -0.037509169429540634 0.16804032027721405 0.09884759038686752 -0.032929860055446625 -0.09259533882141113 -0.03142477944493294 -0.09984809905290604 0.07469401508569717 -0.030440691858530045 -0.2526090443134308 0.13229641318321228 0.06838332116603851 -0.04374822601675987 -0.006117109674960375 -0.01227657962590456 -0.057589057832956314 -0.06918438524007797 -0.03615066781640053 -0.003398882457986474 0.0649586021900177 0.1563187539577484 -0.07499869167804718 -0.038388993591070175 -0.08714266866445541 -0.017440935596823692 -6.955944700166583E-4 0.010125336237251759 -0.09204120188951492 0.03217468783259392 -0.009568477980792522 -0.29040735960006714 0.02701512537896633 0.07883794605731964 0.15440288186073303 -0.05705125257372856 0.1087070181965828 0.21785949170589447 0.07852880656719208 -0.0582626610994339 -0.08163674175739288 -0.0750877857208252 0.062140144407749176 0.06567274779081345 -0.12290594726800919 0.08984366804361343 0.08900126814842224 -0.11411336064338684 0.02631896734237671 0.057837892323732376 0.06121835112571716 -0.05538806691765785 0.1370731145143509 0.07738978415727615 -0.20048470795154572 0.15331725776195526 -0.013467387296259403 -0.18597383797168732 -0.1857382357120514 0.20517443120479584 0.03332189470529556 0.14209990203380585 0.05224506929516792 -0.11857030540704727 0.10407965630292892 0.02045278251171112 0.12940028309822083 0.02591758780181408 0.03755544126033783 -0.05915667489171028 -0.06297438591718674 0.0998159721493721 -0.04284920543432236 -0.096527598798275 -0.08014670759439468 0.014460206963121891 -0.1542626917362213 -0.058003999292850494 -0.028403712436556816 0.03530706837773323 0.04370029270648956 -0.0850609540939331 -0.06483902037143707 -0.0934516191482544 -0.01679072715342045 -0.07037623226642609 -0.041627027094364166 -0.020501824095845222 -0.053794290870428085 0.027077052742242813 -0.17123721539974213 0.07998195290565491 0.01944657228887081 -0.013366367667913437 -0.0978018268942833 0.27136319875717163 -0.1469549685716629 0.018331212922930717
Mild -0.10911175608634949 0.024588555097579956 -0.009336579591035843 -0.18958626687526703 0.26477766036987305 0.08981238305568695 0.03146681562066078 -0.0847531110048294 -0.08707112073898315 0.05032559856772423 0.031024429947137833 -0.09231085330247879 0.07524938881397247 0.06887040287256241 -0.09790116548538208 0.022113043814897537 0.07705292105674744 -0.04580468311905861 -0.09017089009284973 0.043355368077754974 0.11803954094648361 -0.030137797817587852 -0.08284205198287964 -0.002134752692654729 0.05652448162436485 0.07780010998249054 0.02174069546163082 -0.0651313066482544 -0.04738953709602356 -0.043801333755254745 -0.03242241591215134 0.09237097203731537 -0.12421344220638275 -0.16460585594177246 -0.010022041387856007 4.3904909398406744E-4 0.03278612345457077 0.038463491946458817 0.009896667674183846 0.06511242687702179 -0.0622345395386219 -0.021090684458613396 -0.27213844656944275 0.06455390155315399 -0.15437598526477814 0.148066908121109 -0.12667974829673767 0.35704198479652405 -0.05865931138396263 -0.08069729804992676 0.2187129259109497 -0.12157556414604187 -0.01960640214383602 0.09030704200267792 -0.07794039696455002 0.06047888845205307 -0.12726807594299316 0.07313573360443115 -0.05438138544559479 -0.07181555032730103 0.03328472375869751 0.18387460708618164 -0.11031891405582428 -0.008098114281892776 0.12507757544517517 -0.0011063457932323217 -0.1235494464635849 0.07745789736509323 0.15808744728565216 -0.03517580032348633 6.848780321888626E-4 0.03853767365217209 -0.06306815892457962 0.16553816199302673 0.04395800456404686 -0.05129099637269974 -0.16021078824996948 0.08103489875793457 0.12271011620759964 -0.008471092209219933 -0.029566574841737747 0.14010180532932281 0.010794637724757195 -0.0027302829548716545 0.056501928716897964 0.11619219183921814 -0.06751155853271484 0.05667594075202942 -0.08743391185998917 0.013163261115550995 -0.128056600689888 0.004599376115947962 -0.011319242417812347 -0.018972206860780716 0.12256816029548645 0.08908651769161224 -0.00221259705722332 0.16690576076507568 0.0016603389522060752 4.845105286221951E-4
OneOf: -0.1453983634710312 0.11356116086244583 -0.05399085953831673 -0.1640433520078659 0.08499036729335785 0.10365043580532074 -0.06821119785308838 -0.15141235291957855 -0.051583219319581985 -0.0031439769081771374 -0.08643431961536407 0.03862042725086212 -0.04703875631093979 0.062271710485219955 -0.1000976487994194 0.11515985429286957 -0.029205353930592537 -0.06894373893737793 -0.10468028485774994 -0.023321004584431648 0.14133113622665405 -0.12822279334068298 -0.10242220759391785 0.060934845358133316 0.024746131151914597 -0.028968438506126404 -0.07794075459241867 -0.11504676938056946 0.08370374143123627 -0.04951426759362221 -0.05757403373718262 -0.033341556787490845 -0.07626686990261078 -0.19085048139095306 0.007795969024300575 0.10714730620384216 -0.033023517578840256 0.04590173810720444 0.15268337726593018 0.1521940976381302 0.018603762611746788 -0.04668771103024483 -0.1636766940355301 -0.07863833755254745 -0.05333634093403816 0.15623152256011963 -0.22722843289375305 0.2609652280807495 -0.14927704632282257 -0.10484963655471802 -0.02404436096549034 -0.03997791185975075 0.0738430991768837 -0.10516981780529022 0.08321484178304672 -0.02021806687116623 -0.13328175246715546 -0.038514070212841034 -0.0462658628821373 -0.16433370113372803 -0.0890626534819603 0.02987976185977459 0.013356252573430538 0.09523714333772659 0.057514891028404236 0.023675113916397095 -0.09410607814788818 0.07190427929162979 0.09793324023485184 0.056633539497852325 -0.03630243241786957 -0.02062360756099224 -0.13320381939411163 0.08775842189788818 0.14855097234249115 -0.11900212615728378 -0.07418050616979599 -0.06793560087680817 0.045446887612342834 0.03527940809726715 0.22448085248470306 -0.053435634821653366 -0.003146849339827895 -0.04428219050168991 0.0013463117647916079 -0.09837176650762558 -0.0012047484051436186 -0.008267301134765148 0.20563556253910065 -0.0077147590927779675 -0.06902014464139938 0.0014146765461191535 -0.20577135682106018 0.03829686716198921 0.03158855438232422 -0.07466380298137665 0.09655861556529999 0.22486601769924164 -0.041950441896915436 0.0621202327311039
caprina 0.18929941952228546 -0.07267652451992035 0.10883340239524841 0.15021231770515442 -0.10271215438842773 0.14888222515583038 0.2422947883605957 -0.08904679119586945 -0.12371214479207993 -0.052453167736530304 -0.02830442786216736 -0.05604548379778862 0.07821721583604813 0.16604071855545044 0.04101414233446121 0.057487547397613525 0.03623059391975403 0.12438961863517761 -0.03178953006863594 -0.10471692681312561 -0.02208789810538292 -0.08547890186309814 0.15137313306331635 -0.017155345529317856 -0.020428650081157684 -0.05848046392202377 0.02803269773721695 0.061892058700323105 0.00843618530780077 -0.16046495735645294 0.2174786776304245 0.05827407166361809 0.06504198908805847 -0.15077172219753265 -3.4959547338075936E-4 -0.021344603970646858 0.11466359347105026 0.17283986508846283 -0.03128739818930626 -0.007230098359286785 0.03232354670763016 0.042189933359622955 -0.2142598181962967 0.04250294715166092 0.03445901349186897 0.11962633579969406 -0.00897081196308136 -0.03940693289041519 -0.17317771911621094 0.10636654496192932 -0.024204589426517487 -0.032138530164957047 -0.12084952741861343 0.09553171694278717 0.023705067113041878 0.04720176383852959 0.04488794505596161 0.050920434296131134 -0.12263991683721542 -0.014723174273967743 -0.02688376046717167 0.13548579812049866 -0.07728683203458786 0.12522248923778534 -0.10882429033517838 0.12949489057064056 0.1420028805732727 -0.10007428377866745 -0.12568706274032593 0.15670286118984222 -0.08027494698762894 0.0364016517996788 -0.07584982365369797 0.014055064879357815 -0.04212908819317818 0.03520454838871956 -0.0716472938656807 -0.02413165010511875 -0.023707924410700798 -0.11238786578178406 0.0654492899775505 -1.4727836241945624E-4 -0.13905830681324005 0.10778331011533737 -0.24675723910331726 -0.08942996710538864 -0.0013606160646304488 0.011468852870166302 0.06502345204353333 0.01731576770544052 0.07364474982023239 0.08369533717632294 0.19823014736175537 0.14863185584545135 0.07142528146505356 -0.04503907635807991 0.07937618345022202 -0.09058129042387009 -0.05974069610238075 0.08912834525108337
http://www.semanticweb.org/owl2vec#typeOf -0.07513692229986191 0.1499212235212326 -0.037903960794210434 -0.10164216160774231 0.12792235612869263 -0.12813447415828705 -0.05634438246488571 -0.17072941362857819 -0.10189390927553177 -0.03638977184891701 0.008276265114545822 0.08309028297662735 -0.006655920296907425 0.18543118238449097 -0.1310558021068573 0.06913138180971146 0.052190277725458145 0.031839486211538315 0.030903790146112442 0.013042435050010681 0.11820563673973083 -0.07979568094015121 0.010063232854008675 0.13772526383399963 -0.01728214882314205 0.061773333698511124 -0.07581879198551178 -0.06422276049852371 0.015945537015795708 -0.03651672601699829 -0.048226967453956604 -2.456132206134498E-4 -0.23751838505268097 -0.12665386497974396 -0.023085210472345352 0.023223990574479103 0.028810616582632065 -0.012972753494977951 0.06998737901449203 0.15116995573043823 -0.07208160310983658 -0.14781025052070618 0.1273370236158371 -0.04806540533900261 -0.03136216476559639 0.12031207978725433 -0.22299034893512726 0.06917338073253632 -0.006953495554625988 -0.007567282300442457 -0.019223734736442566 -0.06275112181901932 -0.005223611835390329 -0.019230607897043228 -0.03900676220655441 0.024285927414894104 0.04900616779923439 -0.032810039818286896 -0.04477536305785179 0.10387731343507767 -0.045035798102617264 0.20804142951965332 -0.02815757878124714 0.3056340515613556 -0.059718724340200424 0.020294031128287315 -0.09858284145593643 0.08604664355516434 0.2664335370063782 0.024301866069436073 -0.10178560763597488 -0.028412144631147385 -0.01087471004575491 -0.011249428614974022 0.17120887339115143 -0.16259586811065674 -0.059027403593063354 -0.023684468120336533 0.006154069676995277 -0.044345106929540634 0.07323924452066422 -0.02721044234931469 -0.10819954425096512 0.007570803631097078 -0.11995293200016022 -0.027968568727374077 -0.01619177684187889 0.04701181873679161 0.18581277132034302 0.023060839623212814 -0.1428695023059845 -0.07526084780693054 0.036148834973573685 0.012214334681630135 0.09700021147727966 0.0721205323934555 -0.037569355219602585 0.2141278237104416 -0.11944691091775894 0.19264493882656097
would 1.3172616309020668E-4 0.023378532379865646 0.1107737123966217 -0.026370229199528694 0.17191630601882935 0.14150826632976532 0.03987906128168106 -0.10373961925506592 -0.08558917045593262 0.03030821494758129 -0.06984821707010269 -0.15056395530700684 -0.05593147128820419 0.34679654240608215 0.018733657896518707 0.002156786620616913 -0.05029215291142464 -0.10565496981143951 -0.12364719063043594 -0.12123417109251022 0.16651229560375214 -0.16182589530944824 -0.05559108033776283 0.13701973855495453 -0.0010052287252619863 -0.08562961220741272 -0.11545787751674652 -0.004010410513728857 0.02565743401646614 -0.17366397380828857 0.07256105542182922 -0.027254587039351463 0.06305980682373047 -0.052308373153209686 -0.08553975820541382 0.05828243866562843 0.022452063858509064 -0.010309509001672268 0.1633782535791397 0.1278514862060547 0.1366136372089386 0.06337089091539383 -0.004634255077689886 0.05169275775551796 -0.04509417712688446 0.09516503661870956 0.006213188171386719 0.1090637594461441 0.07584410905838013 -0.21194985508918762 0.07962378859519958 -0.07219618558883667 0.10171904414892197 -0.1240234375 -0.004145015962421894 -0.044374290853738785 0.010275603272020817 -0.04871230572462082 0.011906703002750874 -0.15412260591983795 0.019710898399353027 0.14440064132213593 0.026026645675301552 0.10161201655864716 0.10906114429235458 -0.13241097331047058 -0.11337792873382568 0.1192917451262474 0.12417925149202347 -0.07171615958213806 -0.0997636616230011 0.004404716193675995 0.01283523254096508 0.017011608928442 -0.01818315126001835 0.022731563076376915 -0.14881965517997742 -0.05162288248538971 -0.08309930562973022 -0.18594525754451752 0.21327278017997742 -0.03328997269272804 0.18087925016880035 0.05020546913146973 -0.026077136397361755 -0.0421142503619194 -0.025050221011042595 -0.11521314829587936 0.12943227589130402 0.013522481545805931 -0.05503319948911667 0.027281152084469795 -0.11183498799800873 0.053970903158187866 -0.0685281902551651 0.048751331865787506 -0.08663293719291687 0.12684695422649384 -0.09973405301570892 0.021105244755744934
disjoint -0.11220499873161316 0.003491032402962446 0.2041567862033844 0.16490881145000458 0.062097787857055664 0.16173243522644043 0.09907371550798416 -0.08613789081573486 0.07164382189512253 0.05530562996864319 -0.11127188801765442 -0.04112600162625313 -0.0788584053516388 0.16978204250335693 0.06052522361278534 0.09903676062822342 0.011241244152188301 0.008608702570199966 -0.09416814893484116 -0.0598098561167717 0.10245687514543533 -0.03340427577495575 0.01582884043455124 0.16231508553028107 0.08612190186977386 -0.18416447937488556 -0.23967571556568146 0.015970708802342415 0.0892963632941246 -0.19383208453655243 0.0657346099615097 -0.055739741772413254 0.12170122563838959 -0.19989325106143951 -0.07614091038703918 0.13329146802425385 -0.03040919452905655 -0.05108269304037094 0.07875584810972214 0.19141921401023865 0.02344895713031292 0.01309683546423912 -0.004155302420258522 0.06571678072214127 -0.18587659299373627 0.12257193773984909 -0.05872410908341408 0.08441363275051117 0.038658786565065384 -0.07748965919017792 0.06125243753194809 -0.09807920455932617 0.00795710925012827 -0.016485461965203285 0.08993997424840927 0.007691007107496262 -0.12108564376831055 0.10046160966157913 -0.01489745918661356 -0.11581374704837799 0.07448939234018326 -0.028787503018975258 -0.007074407301843166 0.04858368635177612 0.023392854258418083 0.00571837555617094 -0.013836931437253952 -0.014432260766625404 0.10210446268320084 -0.019125591963529587 0.10326100140810013 0.003932206891477108 0.05576721578836441 0.1085650846362114 0.041532568633556366 0.059703100472688675 -0.09021785855293274 0.0014197365380823612 -0.17420868575572968 -0.14208054542541504 0.10434243083000183 -0.04068166762590408 -0.05060790851712227 -0.03250863030552864 -5.889185704290867E-4 -0.03347797691822052 0.03709159418940544 -0.05110517516732216 0.04656444489955902 -0.0775308609008789 -0.15315689146518707 0.08527139574289322 -0.05626201629638672 -0.008915768004953861 -0.12027166783809662 -0.23321889340877533 0.06998766213655472 0.26744991540908813 -0.04986198991537094 0.1366836130619049
Capricciosa -0.006827940698713064 -0.028741400688886642 -0.053834762424230576 0.09414626657962799 0.16188503801822662 0.12987776100635529 0.13730154931545258 0.04913225397467613 0.1625903844833374 -0.04648371413350105 -0.11607374250888824 -0.09320811927318573 -0.02568543516099453 -0.07345764338970184 -0.0019077546894550323 -0.09637154638767242 0.004451134707778692 0.010922298766672611 -0.20333664119243622 -0.033899422734975815 0.0028264892753213644 -0.19170162081718445 0.008557907305657864 0.09756400436162949 0.0922640785574913 0.06745978444814682 -0.17458969354629517 -0.07850075513124466 0.13782218098640442 -0.10734740644693375 -0.08030882477760315 0.09661564230918884 0.0033780208323150873 -0.08638132363557816 0.03547638654708862 0.07991544902324677 0.08804319053888321 -0.004346542060375214 0.17739254236221313 0.08066023886203766 -0.0015357075026258826 0.06241295859217644 -0.18159717321395874 0.08522608876228333 -0.06603670865297318 0.23041144013404846 -0.07319629937410355 0.32782313227653503 -0.011268110014498234 -0.002955063944682479 -0.04215284436941147 -0.07153230160474777 -0.032513830810785294 -0.06126599758863449 0.013551371172070503 0.006866193376481533 -0.038829050958156586 -0.13158851861953735 -0.08337881416082382 -0.007384742144495249 0.021508608013391495 0.15306785702705383 -0.045777205377817154 0.0033387094736099243 0.006155563984066248 0.11006411910057068 0.003993622492998838 -0.0035945342388004065 -0.06469177454710007 0.08623368293046951 0.05995167791843414 0.0734240710735321 -0.0907507836818695 0.24442286789417267 0.050945352762937546 -0.10484137386083603 0.1003711000084877 0.01697222702205181 0.15668000280857086 0.22475190460681915 0.006981313228607178 -0.010067694820463657 0.0587635338306427 -0.019083475694060326 0.028546486049890518 0.04677768051624298 -0.06884923577308655 -0.043180160224437714 -0.0057090395130217075 -0.05317255109548569 0.0850016251206398 0.17455750703811646 -0.12850579619407654 -0.06777243316173553 -0.16111662983894348 -0.045143190771341324 0.03327598422765732 0.014999328181147575 0.15174536406993866 -0.07334792613983154
property, -0.07654215395450592 -0.05929338559508324 0.06758669763803482 0.005589673761278391 0.03326351195573807 0.0658579096198082 -0.11157022416591644 -0.09968074411153793 -0.14251559972763062 0.09477779269218445 -0.0688396692276001 0.0513419583439827 -0.08771786093711853 0.2611277103424072 -0.09529532492160797 0.06581895053386688 0.0554913654923439 0.008269358426332474 -0.14817218482494354 0.09732388705015182 0.08480244129896164 -0.18827767670154572 0.009946281090378761 0.20914092659950256 -0.10131069272756577 -0.18501852452754974 -0.09349846094846725 -0.11111573129892349 -0.03639183193445206 -0.19428300857543945 0.014980616979300976 0.007703810464590788 -0.021858343854546547 -0.08278705924749374 -0.07890152931213379 0.1100124791264534 0.20887541770935059 0.04292023554444313 0.00660850340500474 0.15736043453216553 0.11387121677398682 -0.07150844484567642 -0.15037158131599426 0.047132812440395355 0.01928071863949299 -0.09299634397029877 -0.11678089946508408 0.06273429840803146 -0.018903225660324097 -0.16579760611057281 -0.018368443474173546 0.060789547860622406 -0.01017360482364893 -0.06623348593711853 0.09920031577348709 -0.05629696696996689 0.012560001574456692 0.064345583319664 -0.1749712973833084 -0.19785629212856293 -0.10560061782598495 0.1469930112361908 0.09850567579269409 0.10488256067037582 0.0493805855512619 0.024340353906154633 -5.14981453306973E-4 0.04909573122859001 0.14419865608215332 0.0512692928314209 0.05094625800848007 0.020380862057209015 -0.1712155044078827 0.08865656703710556 5.161635344848037E-4 -0.023570330813527107 0.05395342782139778 -0.011516664177179337 -0.07510462403297424 -0.13772423565387726 0.03361574560403824 0.1336165964603424 0.025399023666977882 0.03971755504608154 5.102880531921983E-4 -0.11120492219924927 -0.13930365443229675 0.030097568407654762 0.11511550098657608 -0.00493383826687932 -0.10589566826820374 0.09969550371170044 -0.14312569797039032 -0.04439281299710274 0.036638714373111725 -0.04725094512104988 -0.1986067146062851 -0.032835084944963455 -0.03610416129231453 0.10232531279325485
interestingpizza -0.09122098982334137 -0.023953791707754135 0.06792227923870087 -0.15700094401836395 0.03406878560781479 -0.011762939393520355 0.010555517859756947 0.021170465275645256 -0.0064963120967149734 -0.03809823840856552 0.23688533902168274 -0.040697406977415085 0.021978527307510376 0.0038025688845664263 0.057104405015707016 -0.07789430022239685 -0.08934346586465836 0.024419326335191727 0.029792923480272293 -0.1284889429807663 0.026065422222018242 -0.03730995953083038 -0.0269953440874815 0.03300824761390686 0.10186081379652023 -0.03311406821012497 0.02611515298485756 0.16861867904663086 -0.06485999375581741 -0.1552322953939438 0.04987431690096855 0.008000445552170277 0.05156397819519043 -0.20306457579135895 0.21598830819129944 0.21188747882843018 0.03975207358598709 0.03660960868000984 0.19627965986728668 -0.0019010306568816304 -0.142660453915596 -0.11887778341770172 -0.06961830705404282 -0.09634880721569061 0.15752999484539032 0.09163788706064224 -0.09264998137950897 0.29421594738960266 -0.06156822666525841 0.1241840124130249 -0.20129252970218658 0.02206980623304844 -0.025458548218011856 -0.022047821432352066 0.16313616931438446 -0.021681545302271843 -0.1409369260072708 0.01042548380792141 0.023377133533358574 -0.17159272730350494 -0.07557627558708191 -0.08634769171476364 -0.08290711790323257 -0.12246004492044449 -0.029901277273893356 -0.07017438113689423 -0.010228291153907776 -0.09440772980451584 0.04110826924443245 0.0197426900267601 -0.12605369091033936 0.007018402684479952 -0.09025681763887405 0.08420126885175705 0.00759758660569787 0.02672986313700676 -0.011587036773562431 -0.07307279855012894 -0.030819442123174667 -0.06703638285398483 0.014167869463562965 0.053674280643463135 -0.1302339881658554 -0.02094264142215252 0.08528701961040497 -0.18993914127349854 -0.15087532997131348 -0.07809813320636749 0.2147119641304016 0.047517284750938416 0.0822022557258606 -0.02813565544784069 0.1424076408147812 0.0555729866027832 0.14353986084461212 -0.0035602226853370667 -0.0030075134709477425 9.671890293247998E-4 -0.014699865132570267 0.09844416379928589
http://www.co-ode.org/ontologies/pizza/pizza.owl#PolloAdAstra -0.022367674857378006 0.08242104202508926 -0.197341188788414 -0.02081473544239998 0.05133764073252678 -0.08881402015686035 0.13242025673389435 0.0035848526749759912 -0.03570568189024925 0.2381233423948288 -0.08762924373149872 0.0708158016204834 0.05837792158126831 0.17695443332195282 -0.038072194904088974 0.20021583139896393 0.029585842043161392 0.05285703018307686 -0.2299831062555313 0.056273702532052994 0.012769333086907864 0.11449698358774185 0.0406646691262722 0.011927676387131214 0.09529761970043182 -0.07035976648330688 -0.13545890152454376 -0.06276910752058029 -0.09333694726228714 -0.20219190418720245 0.022273479029536247 0.06633985042572021 0.029178420081734657 -0.09543953835964203 -0.014687735587358475 -0.019606299698352814 -0.005204430781304836 0.04481044411659241 -0.04158414527773857 -0.09037934988737106 0.04839836061000824 0.1103287860751152 -0.1832592785358429 -0.006527543533593416 -0.18786214292049408 0.11849741637706757 -0.10041620582342148 0.10905236750841141 -0.019988715648651123 0.12236245721578598 0.017677515745162964 -0.17559599876403809 -0.028343191370368004 0.07355029135942459 0.08712448179721832 -0.21332305669784546 -0.09577156603336334 0.12021829187870026 0.02179143577814102 -0.03198712319135666 -0.16129782795906067 0.13167475163936615 -0.12888267636299133 -0.09487828612327576 -0.006307778414338827 -0.12941932678222656 -0.03283959999680519 -0.047969359904527664 -0.1144004613161087 0.07072323560714722 0.03168308734893799 0.007186248432844877 0.054720960557460785 0.03633192926645279 0.042566850781440735 0.08421919494867325 0.08619995415210724 0.06618621200323105 -0.003163906978443265 0.09480176866054535 0.1638210564851761 0.027216747403144836 0.009899107739329338 0.12319831550121307 -0.06268930435180664 0.24810189008712769 0.08544033765792847 -0.0126333711668849 0.1249229907989502 -0.07292704284191132 0.0782669186592102 0.010718932375311852 0.04175620526075363 -0.06800857186317444 -0.017889389768242836 0.14700861275196075 0.1047891154885292 -0.03331517428159714 -0.025426723062992096 0.11626280099153519
because -0.1585867702960968 0.02315950207412243 0.010351177304983139 -0.025653373450040817 0.15152138471603394 0.1087188869714737 0.029271259903907776 -0.1886965036392212 0.08496668934822083 -0.0394645556807518 -0.05710720643401146 0.13125203549861908 0.018074514344334602 0.15406790375709534 0.11261356621980667 -0.07567711919546127 -0.10024460405111313 0.004881755448877811 -0.26089075207710266 0.07278727740049362 -0.011961502954363823 -0.11773240566253662 0.12898637354373932 0.22288087010383606 -0.05195929482579231 -0.1676167994737625 -0.13509580492973328 0.07109890133142471 0.013670573942363262 -0.1198626235127449 -0.016605716198682785 -0.00426601804792881 0.13408856093883514 -0.08980578184127808 -0.09774990379810333 0.0724221020936966 0.06796030700206757 -0.11166418343782425 0.10374811291694641 0.1948186308145523 0.18539835512638092 0.029880894348025322 0.09546810388565063 3.51220864104107E-4 -0.012044686824083328 0.015821587294340134 -0.09337776154279709 -0.017659299075603485 -0.050600193440914154 -0.01311253011226654 -0.10840389132499695 -0.026604436337947845 -0.009504271671175957 -0.04930651932954788 0.039075497537851334 0.1334981471300125 -0.11188716441392899 0.16548258066177368 -0.04283643141388893 -0.0977269858121872 -0.01742282509803772 0.11476658284664154 -0.1391131430864334 0.12380103766918182 0.02622053772211075 -0.07261728495359421 0.05860858038067818 -0.11651245504617691 0.06631878018379211 -0.06351769715547562 0.010203337296843529 -0.028152985498309135 0.19956152141094208 -0.0549655556678772 -0.03395843505859375 0.08665049821138382 0.04126857966184616 -0.13645681738853455 -0.20757798850536346 -0.15504580736160278 0.04045064374804497 0.05762926861643791 -0.07228037714958191 0.012772396206855774 -0.02845340594649315 -0.0983370766043663 -0.03030490316450596 -0.09567238390445709 0.059644825756549835 -0.03859073668718338 -0.09992852061986923 0.023775089532136917 -0.09533669054508209 -0.04783009737730026 -0.12750542163848877 0.002166319638490677 -0.09569139033555984 0.21484503149986267 0.0016637893859297037 0.01403771061450243
InterestingPizza -0.17129814624786377 -0.001445034402422607 0.0268271341919899 -0.30734819173812866 0.17617876827716827 0.21005509793758392 0.006259719841182232 -0.09024222940206528 -0.07370324432849884 -0.009780754335224628 0.06065486744046211 -0.005388931836932898 0.07832907885313034 0.08182450383901596 -0.18188148736953735 0.06464497745037079 -0.06311417371034622 0.01980300433933735 -0.019038153812289238 0.040381066501140594 0.07565905898809433 -0.06488829106092453 -0.10146579891443253 0.15902267396450043 0.11943234503269196 -0.024610375985503197 -0.032243259251117706 -0.0022548302076756954 -0.02895341068506241 -0.06761262565851212 -8.367306436412036E-4 0.10995832085609436 0.00427918741479516 -0.2806347906589508 0.02458111196756363 0.18428194522857666 0.14527882635593414 0.18707101047039032 0.12317153811454773 0.1411098688840866 -0.02851984277367592 0.04190734773874283 -0.14594675600528717 -0.03600390627980232 -0.10236987471580505 0.1342984288930893 -0.18854326009750366 0.30387189984321594 -0.054201431572437286 0.0010107539128512144 0.04205657169222832 0.07290410995483398 -3.638058842625469E-4 -0.014231606386601925 0.07769384235143661 0.005481042433530092 -0.16056875884532928 -0.10888829082250595 -0.03507814183831215 -0.09393251687288284 -0.004030868876725435 0.06388582289218903 -0.00790006946772337 0.15574370324611664 0.12270477414131165 0.07827305048704147 -0.1521807610988617 -0.01538911648094654 0.1483003795146942 -0.02628585323691368 -0.06628568470478058 0.06964646279811859 -0.057670801877975464 0.11017768085002899 0.05247779190540314 -0.00489069102331996 -0.033415645360946655 0.0019204908749088645 0.10308874398469925 0.06194152683019638 0.020500879734754562 -0.04795409366488457 -0.0376407653093338 -0.038360174745321274 -0.031176680698990822 -0.0014230362139642239 -0.0518256314098835 -0.029548214748501778 -0.025955142453312874 0.021251799538731575 -0.08433607220649719 -0.005448595155030489 -0.1394854038953781 -0.051995813846588135 -0.006140837911516428 0.0017715542344376445 -0.08714431524276733 0.06805593520402908 -0.07580740004777908 -0.00945886317640543
http://www.co-ode.org/ontologies/pizza/pizza.owl#SauceTopping -0.09979395568370819 0.22275252640247345 0.13661038875579834 -0.03751249983906746 0.20582249760627747 -0.005197098013013601 0.031429991126060486 -0.01090444065630436 0.026273198425769806 -0.08975091576576233 0.011735036969184875 -0.0415264330804348 0.10196559876203537 0.03846581652760506 -0.2346927523612976 0.001158250030130148 -0.04843469336628914 0.2309114634990692 -0.020562782883644104 0.12350325286388397 0.02229764498770237 3.7484223139472306E-4 0.06716691702604294 -0.03279317915439606 0.11855614185333252 -0.01411912590265274 0.022656768560409546 0.019912589341402054 -0.07550142705440521 0.033093374222517014 -0.1407017707824707 -0.0474933423101902 0.06842111796140671 -0.017147792503237724 -0.1087324395775795 -0.023676369339227676 0.09894300252199173 0.05913913995027542 0.11985756456851959 0.044067125767469406 0.16097691655158997 0.03284897282719612 -0.19849388301372528 -0.1487543284893036 -0.10112099349498749 -0.0836353600025177 -0.2650212049484253 0.22457298636436462 0.030926436185836792 0.12215126305818558 -0.030427558347582817 0.04326033964753151 0.02692696824669838 0.07155154645442963 0.025336820632219315 0.10729646682739258 -0.04181205481290817 -0.036351464688777924 -0.11471852660179138 -0.14898258447647095 -0.12206407636404037 0.13566137850284576 -0.10848477482795715 0.0706772655248642 -0.07812108844518661 -0.14125311374664307 -0.08458130806684494 -0.07654587924480438 -0.0979771837592125 0.04782151058316231 -0.10678835958242416 0.03711852803826332 -0.1226532831788063 0.0021436400711536407 0.060246791690588 0.038958676159381866 0.04662494361400604 -0.04655349999666214 -0.08230439573526382 -0.13038726150989532 0.03526637703180313 0.07382377237081528 0.0816471055150032 0.02562403492629528 0.09054659307003021 -8.029031450860202E-4 -0.1396799385547638 -0.11337413638830185 -0.0893622636795044 0.1518467664718628 -0.12474414706230164 0.034490302205085754 0.13835561275482178 -0.10540205985307693 0.13806861639022827 0.07534006237983704 0.06797819584608078 -0.06919152289628983 0.013877402991056442 -0.01747831515967846
spicytopping -0.12253876030445099 0.20775870978832245 0.08773401379585266 -0.020344750955700874 -0.08286920189857483 -0.10321153700351715 -0.07767503708600998 -0.07832374423742294 -0.08035272359848022 -0.005130783189088106 0.09136166423559189 0.05929999053478241 0.020890211686491966 0.025629257783293724 0.07184028625488281 0.0495997816324234 -0.04002240300178528 -0.03300986438989639 -0.04864681512117386 -0.05003533512353897 0.002588727278634906 0.04883353039622307 0.01477915607392788 0.18435104191303253 -0.05037204548716545 -0.14020642638206482 -0.07509374618530273 0.06172598525881767 -0.16590645909309387 0.08097994327545166 0.02625105157494545 0.02806517481803894 0.10554639250040054 -0.1323767602443695 -0.07126456499099731 0.03135719522833824 0.06287875026464462 0.29232144355773926 -0.10494653135538101 -0.02166646718978882 -0.04001075029373169 -0.06820659339427948 -0.1126578152179718 -0.051717981696128845 -0.06544416397809982 0.021125074476003647 0.029507717117667198 0.1441987305879593 -0.08573277294635773 -0.04879535734653473 -0.00849551148712635 0.01151659432798624 0.025709565728902817 0.14265413582324982 0.14730559289455414 0.06679127365350723 0.08471991121768951 0.09683427214622498 0.15175458788871765 -0.10286089777946472 -0.11282885819673538 0.14816613495349884 -0.07557328790426254 0.16917835175991058 -0.01040654256939888 0.04759974032640457 -0.009877144359052181 -0.15696220099925995 -0.12203006446361542 -0.09334402531385422 -3.003808087669313E-4 0.04690956324338913 -0.17675216495990753 -0.08008575439453125 0.0932006984949112 0.11845742166042328 0.089251808822155 -0.15789970755577087 -0.042198486626148224 -0.21237556636333466 -0.04573000967502594 -0.12066493183374405 -0.0440605990588665 0.024628929793834686 0.06914573907852173 -0.03515912592411041 -0.10075999051332474 0.018259698525071144 0.06183096021413803 -0.07423178851604462 0.23888270556926727 -0.022016281262040138 0.1210571750998497 0.035828083753585815 0.15658363699913025 -0.006094420328736305 0.023214319720864296 0.25539708137512207 -0.020034078508615494 -0.05803791061043739
Reine 0.04626623913645744 0.06370209902524948 0.054360635578632355 0.005190032999962568 0.2587994337081909 0.16900138556957245 0.12345914542675018 -0.0272507481276989 0.07032337039709091 0.0526285246014595 0.033257901668548584 -0.053501907736063004 0.05314527451992035 0.09881816804409027 -0.02433430589735508 -0.009625536389648914 -0.02215351164340973 0.04223265126347542 -0.19584999978542328 -0.005889161955565214 -0.0109712528064847 -0.12710513174533844 0.060772158205509186 0.15502001345157623 0.09541931748390198 -0.11939729750156403 -0.22576548159122467 -0.153123676776886 0.12783539295196533 -0.08338134735822678 -0.02869056724011898 0.05023074150085449 -0.05393725261092186 -0.3124680817127228 0.025358734652400017 -0.0022031026892364025 0.024726873263716698 0.05672994256019592 0.26962995529174805 0.0703175887465477 -0.027956686913967133 0.008689547888934612 -0.1123315617442131 -0.01789971813559532 0.027089085429906845 0.146852508187294 -0.04884765297174454 0.18197262287139893 -0.04691567271947861 -0.04888467118144035 -0.002161410404369235 -0.07459896802902222 0.06883107125759125 -0.14968577027320862 -0.06337159872055054 0.03826191648840904 -0.06675506383180618 -0.13117089867591858 -0.011874930933117867 0.14760607481002808 0.13250479102134705 0.03999533876776695 -0.009975818917155266 0.1054253950715065 -0.0854506641626358 -0.022878572344779968 -0.05659254267811775 0.11034215986728668 -9.906530613079667E-4 -0.03013654239475727 0.06380442529916763 0.06167740374803543 -0.021347418427467346 0.21314002573490143 0.08739187568426132 -0.11788418143987656 0.12515097856521606 -0.05277585983276367 0.09231318533420563 0.10396306216716766 0.1662859171628952 0.0070123919285833836 0.023030288517475128 -0.09230406582355499 -0.0107202073559165 0.039952173829078674 0.11908987909555435 -0.01903661899268627 -0.08955401182174683 -0.03524867445230484 0.01584494672715664 0.08279365301132202 -0.1111554354429245 -0.14556996524333954 -0.017534494400024414 0.024622920900583267 0.06572430580854416 0.1465539187192917 -0.06382506340742111 -0.05791177228093147
Thing -0.15830367803573608 0.08521618694067001 -0.026829281821846962 -0.14990925788879395 0.25091108679771423 0.08347178250551224 0.06685025990009308 -0.2907838821411133 -0.0513879619538784 0.1088748425245285 0.03451484441757202 -0.010341343469917774 0.08045627921819687 0.15694443881511688 -0.026832152158021927 0.09478727728128433 -0.020693397149443626 -0.03484216332435608 -0.10473045706748962 -0.002929738024249673 0.07145944237709045 -0.1321413666009903 -0.07380325347185135 0.17547494173049927 0.09415125101804733 -0.013619564473628998 -0.11474978178739548 -0.10551699995994568 0.06752645969390869 -0.03058646246790886 0.061454981565475464 0.10258015245199203 -0.10010204464197159 -0.21073147654533386 -0.019022637978196144 0.08875763416290283 0.08015211671590805 0.028180433437228203 0.12176643311977386 0.10298534482717514 0.09986832737922668 0.043195825070142746 -0.19435718655586243 3.102503251284361E-4 -0.06198200210928917 0.1931702196598053 -0.16863127052783966 0.2969452142715454 -0.19782263040542603 0.06721673905849457 0.04509324952960014 -0.03341497480869293 0.07843074947595596 -0.1008274033665657 0.0404292568564415 0.03849887475371361 -0.08776166290044785 -0.059988461434841156 -0.028587453067302704 0.001869415631517768 0.03322167322039604 0.08359795063734055 -0.07803226262331009 0.0626910850405693 0.0399053581058979 -0.03629523143172264 -0.051689788699150085 0.0188898928463459 -0.008189908228814602 -0.07197489589452744 -9.287785505875945E-4 0.04208464175462723 -0.055451899766922 0.06685824692249298 0.06095270439982414 -0.06040831655263901 -0.19436992704868317 0.0019965413957834244 0.09565079212188721 -0.018030989915132523 0.131346195936203 -0.049391016364097595 0.0021547144278883934 -0.010247260332107544 0.050781454890966415 -0.028960416093468666 -0.024011880159378052 0.06829313933849335 -0.005077351815998554 0.06358730792999268 -0.11733980476856232 0.10859192162752151 -0.16460753977298737 -0.10050848871469498 0.0018912223167717457 -0.06716755032539368 0.10328284651041031 0.10419345647096634 -0.09289758652448654 -0.0105558717623353
peppertopping -0.10300716757774353 0.12858791649341583 -0.29176682233810425 -0.14561039209365845 0.058999497443437576 -0.022487442940473557 0.12503905594348907 -0.04962485656142235 -0.008269168436527252 -0.011092618107795715 -0.07084402441978455 0.09701008349657059 0.11719117313623428 0.14669783413410187 0.07861770689487457 0.23601560294628143 -0.024176422506570816 0.018185479566454887 -0.0316244512796402 -0.06439505517482758 -0.15473845601081848 -0.1072184294462204 -0.11352356523275375 0.18955984711647034 -0.03620059788227081 0.21895569562911987 -0.04650803282856941 -0.08065314590930939 -0.08943446725606918 0.05567653849720955 -0.0584699809551239 0.10703735798597336 0.04591618478298187 -0.012740222737193108 0.11640353500843048 0.045877691358327866 0.014337568543851376 -0.031937021762132645 0.2541288733482361 -0.026512781158089638 -0.03858526796102524 -0.1533317118883133 -0.050898611545562744 0.0011856926139444113 -0.006367104593664408 -0.1094854325056076 0.026655010879039764 0.03254604712128639 0.09098256379365921 -0.16167128086090088 -0.09223911911249161 0.1143495962023735 -0.023610074073076248 -0.07886233925819397 -0.007775206584483385 -0.01279778778553009 0.047800615429878235 0.07657989114522934 -0.036619193851947784 0.15268056094646454 0.010692182928323746 0.026087619364261627 -0.1606995314359665 0.09509982168674469 0.06703094393014908 0.16968978941440582 0.01323352288454771 0.24831914901733398 -0.03612539544701576 -0.030392266809940338 -0.09472920745611191 0.08928877860307693 -0.09253966063261032 0.036633823066949844 -0.06254471093416214 -0.02387726679444313 -0.032556481659412384 0.12504583597183228 -0.06229645758867264 -0.06695619970560074 -0.09747093170881271 -0.0895349308848381 -0.0640670657157898 -0.018874814733862877 -0.048315078020095825 -0.09467807412147522 -0.08398304134607315 -0.13837023079395294 0.03784995526075363 0.07708026468753815 -0.004367421846836805 -0.11353275179862976 0.18729855120182037 0.12945637106895447 -0.005402115173637867 0.06379691511392593 0.05465712025761604 -0.08777135610580444 -0.005367719568312168 0.03177720680832863
or....etc. 0.07807158678770065 -0.15275897085666656 0.14477284252643585 0.04925264045596123 0.17725831270217896 0.03125455975532532 -0.0051471274346113205 -0.028348412364721298 -0.06723453104496002 -0.1639094203710556 -0.12786932289600372 -0.07396626472473145 -0.08583255112171173 0.05173559859395027 0.03487866371870041 0.005627770442515612 0.05663987249135971 0.11129141598939896 -0.05488916113972664 -0.04447660222649574 -0.1257360279560089 -0.13596391677856445 0.01992398127913475 0.13704411685466766 0.09129012376070023 -0.08010156452655792 -0.054552484303712845 -0.03237299621105194 -0.0013489272678270936 0.04116823896765709 0.030239231884479523 0.08435965329408646 -0.04734010994434357 -0.22063782811164856 -0.08157575130462646 0.10409405082464218 0.27511778473854065 0.014499575830996037 0.11933077871799469 0.13678479194641113 -0.012511800974607468 0.02548101916909218 -0.24109677970409393 -0.07680708914995193 -0.048116154968738556 -0.10017803311347961 -0.018000910058617592 -0.030910518020391464 0.215632826089859 -0.07781478762626648 0.0023383416701108217 0.10073917359113693 -0.14767497777938843 -0.0071387444622814655 -0.03989258036017418 0.0994376689195633 -0.09436694532632828 0.07656431943178177 -0.052094195038080215 -0.007129767909646034 -0.01634669303894043 0.09302836656570435 -0.04181024804711342 0.08273273706436157 0.06727717816829681 -0.06136924400925636 0.21805186569690704 0.04894115775823593 0.21838349103927612 0.15334489941596985 0.17018944025039673 -0.045440495014190674 0.13555511832237244 0.1242869421839714 -0.03674570098519325 0.11450377851724625 -0.11764781177043915 0.0028404623735696077 0.0023962934501469135 -0.10315302014350891 -0.008785677142441273 0.008692622184753418 0.003573669120669365 -0.023096557706594467 -0.008068378083407879 -0.0059697930701076984 0.0661744475364685 -0.0395856648683548 -0.19191806018352509 0.004610096104443073 -0.11164633184671402 -0.007052422035485506 -0.15784990787506104 -0.042634736746549606 -0.04402531310915947 -0.027436504140496254 -0.15925230085849762 0.06954360753297806 -0.09091249853372574 -0.05318880453705788
meaty 0.07911376655101776 -0.05598980188369751 0.08186699450016022 -0.15627963840961456 0.024481583386659622 -0.10190314054489136 -0.027798335999250412 -0.13011907041072845 -0.05674142763018608 -0.07517485320568085 0.04411487281322479 0.059464920312166214 0.07285595685243607 0.05569355934858322 0.08305589109659195 -0.12396463751792908 -0.08688879758119583 0.01393530610948801 -0.12484867125749588 -0.026900356635451317 0.005467300768941641 -0.13144196569919586 0.057963043451309204 0.003836673451587558 -0.07725228369235992 -0.0822339653968811 0.01402716338634491 -0.020680777728557587 -0.06584354490041733 -0.11762099713087082 0.19613876938819885 -0.040637657046318054 -0.08722980320453644 0.03567659482359886 -0.06754156202077866 0.0024258329067379236 0.07287631183862686 0.08032289892435074 0.08514029532670975 -0.07657703757286072 0.060431018471717834 0.03847341611981392 -0.1856745481491089 -0.18295739591121674 -0.03890121728181839 0.14441342651844025 -0.0483025386929512 0.11233963072299957 -0.10678458958864212 -0.187087744474411 -0.017464248463511467 0.0014639527071267366 -0.05145430192351341 0.10994142293930054 0.02204028330743313 0.12049596011638641 0.1049504205584526 -0.0055748154409229755 -0.027116065844893456 -0.2495443969964981 -0.09715577214956284 0.03684143349528313 -0.024834293872117996 -0.23056147992610931 0.048812735825777054 0.016092021018266678 0.11173353344202042 -0.031521376222372055 -0.08603589981794357 -0.026591133326292038 -0.0669897273182869 -0.017928656190633774 -0.11706653982400894 -0.01546065229922533 0.06576386839151382 -0.03389773145318031 -0.002168749226257205 -0.017787236720323563 -0.15607033669948578 -0.15423139929771423 -0.026958364993333817 -0.1410500407218933 0.037241656333208084 -0.03547230735421181 0.006263082846999168 -0.20754669606685638 -0.11613457649946213 -0.1586100310087204 0.20646323263645172 -0.08598137646913528 0.21656090021133423 -4.2711489368230104E-4 0.16137990355491638 0.13209833204746246 0.03266383707523346 0.14119084179401398 -0.036405712366104126 0.08405936509370804 0.18051160871982574 0.03521379828453064
ad -0.04556041583418846 0.007949627004563808 -0.043309036642313004 -0.03379834443330765 -0.005854845978319645 -0.06290863454341888 0.1808060109615326 0.02975684031844139 0.01579243689775467 -0.04514886438846588 0.0487450547516346 0.028902458027005196 0.22059880197048187 0.09276878833770752 -0.09172389656305313 0.1042691320180893 -0.024027960374951363 0.012274938635528088 -0.20782004296779633 0.0509786531329155 -0.05217694491147995 -0.17968429625034332 -0.05565398931503296 -0.020011071115732193 0.07663509994745255 -0.1111912950873375 -0.25350818037986755 0.005664713215082884 -0.05166473984718323 -0.14442017674446106 0.030188892036676407 0.08850128203630447 -0.08490265160799026 0.008322546258568764 -0.006165080703794956 -0.08046715706586838 -0.0991954654455185 0.04864406958222389 -0.2309635877609253 -0.1523497998714447 -0.033569324761629105 -0.025010569021105766 -0.18657971918582916 0.030015569180250168 -0.01824921928346157 0.0760616585612297 0.0960877314209938 -0.04490572214126587 -0.07015378028154373 -0.1614917516708374 0.10646863281726837 0.04446113854646683 0.0504956878721714 -0.009889280423521996 0.02420121803879738 0.17956651747226715 -0.02688230201601982 0.13551342487335205 -0.13418808579444885 -0.029589906334877014 -0.14092878997325897 0.11334607005119324 0.07140813022851944 -0.029025133699178696 0.02508695051074028 -0.2120000422000885 0.19991374015808105 -0.04945274069905281 -0.10546132177114487 0.14314661920070648 0.02015211619436741 0.030378136783838272 0.07737217098474503 -0.034822218120098114 -0.1175055131316185 -0.02402801625430584 -0.024906601756811142 0.13985206186771393 -0.034247804433107376 -0.08379248529672623 -0.009850128553807735 0.019127629697322845 -0.060137324035167694 -0.07800154387950897 0.059456467628479004 -0.005826946347951889 0.09173046052455902 -0.0060204509645700455 0.057401157915592194 0.1567888706922531 0.17000621557235718 -0.03650667518377304 0.20216302573680878 0.061275310814380646 -0.013517525047063828 0.08945948630571365 0.19315244257450104 0.012505597434937954 -0.14021411538124084 -0.022020885720849037
leektopping 0.015385644510388374 -0.1389445960521698 0.09828615933656693 -0.009521708823740482 1.6906224118429236E-5 -0.09259119629859924 0.056471988558769226 0.01706814020872116 0.024855738505721092 -0.04475557431578636 0.08207423985004425 -0.06813540309667587 -0.12065450102090836 0.14610561728477478 0.037501465529203415 -0.07525122910737991 -0.08297894150018692 -0.06661202013492584 0.09664489328861237 0.03822045400738716 -0.03264980390667915 0.13750238716602325 -0.0031835741829127073 -0.007414831314235926 0.05827443301677704 -0.052647415548563004 -0.03155698627233505 -0.12459474802017212 -0.15842972695827484 0.024913130328059196 0.03044181875884533 0.0594407357275486 0.025916466489434242 -0.10687514394521713 0.1890752613544464 0.017655596137046814 0.161251962184906 0.1685013622045517 0.14867480099201202 0.04267478734254837 -0.06586388498544693 -0.17342916131019592 -0.10486935824155807 0.1327262818813324 -0.08511094748973846 0.20598028600215912 0.08353257924318314 0.08695565909147263 0.18498297035694122 0.17396725714206696 0.04226061701774597 0.08665667474269867 0.06144052371382713 -0.01762789860367775 0.051179349422454834 0.18302087485790253 0.009678619913756847 0.14916497468948364 0.014162788167595863 0.033089540898799896 -0.06814272701740265 0.0752728134393692 0.03205054998397827 0.1266881376504898 -0.15451788902282715 -0.08376481384038925 0.06367060542106628 -0.012078894302248955 0.1102481335401535 0.09498793631792068 -0.09659350663423538 0.22594425082206726 -0.009783372282981873 0.12497760355472565 0.05307156592607498 0.1358245462179184 -0.034508608281612396 0.17670714855194092 -0.027350546792149544 0.002206146251410246 -0.004132834728807211 -0.16828970611095428 -0.09651622921228409 0.044840436428785324 0.03763965889811516 -0.0013443836942315102 0.012850676663219929 -0.22274230420589447 -0.25585901737213135 0.09215263277292252 0.04564371332526207 0.05464199557900429 0.05972088500857353 0.021749498322606087 -0.007188841700553894 0.14132241904735565 0.012037724256515503 -0.013994302600622177 0.04350356385111809 0.07032094895839691
mild 0.23581759631633759 0.21844089031219482 0.06922300904989243 0.008344916626811028 0.08329316228628159 0.010401680134236813 0.17637291550636292 0.13033387064933777 -0.2003413885831833 -0.028399908915162086 -0.11265286803245544 -0.1081765815615654 -0.03004026599228382 0.09038974344730377 0.025800613686442375 0.015209446661174297 0.03714790195226669 -0.025661136955022812 0.14488279819488525 0.031353093683719635 -0.05196933075785637 -0.03826567903161049 -0.057805780321359634 0.015086669474840164 0.09347154945135117 0.16580039262771606 -0.135223850607872 0.07246217876672745 -0.16810476779937744 0.0674726739525795 -0.014841261319816113 0.08509145677089691 0.08494670689105988 -0.20131678879261017 0.05505433678627014 0.05566730722784996 -0.0017455480992794037 0.06976673007011414 -0.044911276549100876 -0.044058337807655334 -0.13002999126911163 -0.03215326741337776 -0.1465236097574234 0.05457855761051178 0.009816659614443779 0.011634154245257378 0.008680143393576145 0.09597358852624893 -0.03605165705084801 -0.046500518918037415 -0.0638023242354393 -0.06007077917456627 -0.010450365021824837 0.1187063530087471 -0.04629405960440636 -0.029924938455224037 0.14471343159675598 0.05940370634198189 -0.0062277005054056644 -0.02114892564713955 -0.004659299738705158 0.015566498972475529 -0.08638756722211838 0.21209575235843658 -0.032208673655986786 -0.07741518318653107 0.017756616696715355 0.13057230412960052 0.15864162147045135 -0.008613074198365211 -0.07057978212833405 -0.029071463271975517 -0.010649553500115871 -0.042078807950019836 -0.11680478602647781 0.004473055712878704 0.03181511536240578 0.17575997114181519 -0.030044514685869217 -0.11504355072975159 0.0027067705523222685 -0.1161714717745781 -0.19557474553585052 -0.08447345346212387 -0.06510529667139053 0.12436620146036148 0.03716273605823517 -0.08297882974147797 0.06725529581308365 -0.16320742666721344 -0.15929293632507324 -0.056971851736307144 0.1015419065952301 -0.04490194097161293 0.2279369831085205 0.02521819807589054 -0.04401717707514763 0.2016042023897171 0.18021482229232788 -0.07249182462692261
( 0.04085007309913635 -0.08613701164722443 0.08863815665245056 0.059038903564214706 0.06443310528993607 0.10054811835289001 0.010484341531991959 -0.04886309802532196 0.0062170433811843395 -0.16401644051074982 0.031719956547021866 -0.04776144400238991 -0.02105313539505005 0.20380918681621552 0.02253999188542366 0.051853425800800323 -0.03873751685023308 0.025690393522381783 0.018048293888568878 0.03507199510931969 0.010106261819601059 -0.06548743695020676 0.05446871742606163 0.15788021683692932 0.06435666978359222 -0.12818825244903564 -0.13768507540225983 0.06653347611427307 0.011289454996585846 -0.19527074694633484 0.06171800196170807 0.025377530604600906 0.10446073114871979 -0.36937811970710754 0.05007481947541237 0.1613420993089676 0.11762658506631851 -0.01863286830484867 0.1447274386882782 0.19349338114261627 -0.023161480203270912 0.010125496424734592 -0.05859403312206268 -0.01930646039545536 -0.09057338535785675 -0.04064915329217911 -0.037539511919021606 0.048378534615039825 0.13055910170078278 -0.07704810053110123 0.03660012036561966 -0.002440192038193345 0.07634996622800827 -0.009877725504338741 0.11212225258350372 -0.02491515688598156 -0.1868406981229782 0.04765267297625542 0.018449503928422928 -0.16619588434696198 -0.038959208875894547 0.14740557968616486 0.015990087762475014 0.05626378953456879 0.16086433827877045 -0.0017379270866513252 0.04746030271053314 0.05065156891942024 0.1393979787826538 -0.0031305886805057526 0.05342349410057068 -0.06431689858436584 -0.01638214848935604 0.17752039432525635 0.037317924201488495 -0.03977294638752937 -0.08214472979307175 -0.06054702028632164 -0.09805198758840561 -0.11265727877616882 0.054191745817661285 -0.057413190603256226 -0.06149178743362427 -0.08051177859306335 -0.028225598856806755 -0.07996195554733276 0.11711299419403076 0.04281805455684662 -0.10372968763113022 -0.07333430647850037 -0.07594022899866104 0.07982107251882553 -0.20296891033649445 -0.06766244769096375 -0.0702214315533638 -0.22034688293933868 0.04880928620696068 0.2055952101945877 -0.09654181450605392 0.13274067640304565
) -0.059088267385959625 -0.020225446671247482 0.0471327044069767 -0.10930396616458893 0.05364168435335159 0.009765918366611004 -0.02582584135234356 -0.10870404541492462 -0.12363510578870773 -0.10710372030735016 -0.016785068437457085 -0.006824961863458157 -0.007845391519367695 0.13912834227085114 -0.10363895446062088 0.05215351656079292 0.05187348648905754 -0.0802491158246994 -0.06298956274986267 0.0646246150135994 -0.057812485843896866 -0.10663852840662003 -0.11648670583963394 0.2211749255657196 -0.03385443612933159 -0.18909893929958344 -0.055577438324689865 -0.12738125026226044 -0.052256058901548386 0.025612125173211098 -0.006183696910738945 -0.07614538073539734 -0.05177530273795128 -0.21010397374629974 -0.06947294622659683 0.12450188398361206 0.18548129498958588 0.07254110276699066 0.10925090312957764 0.15182718634605408 0.01981598511338234 0.02343728207051754 -0.14244163036346436 -0.040523894131183624 -0.04489628225564957 -0.1576937735080719 0.018894169479608536 0.03909406438469887 0.1730017215013504 -0.0326034352183342 -0.1279444396495819 0.08433768153190613 0.07424941658973694 -0.027310773730278015 0.12053486704826355 -0.04522387310862541 -0.14694081246852875 0.16523166000843048 0.14364564418792725 -0.2423955202102661 -0.16745996475219727 -0.009861545637249947 -0.07712316513061523 0.08298605680465698 0.1023382917046547 -0.13600027561187744 0.09788034111261368 0.008870980702340603 0.23621363937854767 -0.022450145334005356 0.05766533315181732 0.03621656075119972 -0.04668060317635536 0.1555919498205185 -0.04184155911207199 0.17640770971775055 -0.04544036090373993 0.028251223266124725 -0.014336683787405491 -0.1914123147726059 0.039560578763484955 -0.060391463339328766 0.0102620804682374 0.053077761083841324 -0.04214796423912048 0.07816601544618607 0.1039755716919899 0.04334726557135582 -0.07031780481338501 -0.06924119591712952 -0.010383406654000282 0.08627915382385254 -0.14072901010513306 -0.04060900956392288 0.06263149529695511 -0.036108147352933884 -0.07287153601646423 0.10511364787817001 -0.12812542915344238 0.05089415982365608
require -0.1372513324022293 0.18619129061698914 0.11610053479671478 -0.12785544991493225 0.18589083850383759 1.0635815124260262E-4 -0.002044887514784932 -0.11927511543035507 -0.15048173069953918 0.009497448801994324 0.022115902975201607 -0.025314439088106155 0.03209079056978226 0.32612544298171997 -0.05039867013692856 0.0985584706068039 -0.04849018529057503 -0.14739026129245758 -0.17701902985572815 0.10802395641803741 0.06080086529254913 -0.22217242419719696 0.052208539098501205 0.19643966853618622 -0.07692880928516388 -0.18041425943374634 -0.09733885526657104 0.046309489756822586 0.0011427958961576223 -0.07763388007879257 -0.12025229632854462 -0.029180360957980156 0.01516060158610344 -0.02555893361568451 -0.11778824031352997 0.09891608357429504 0.01337246224284172 0.09047804027795792 0.05978715047240257 0.1456022411584854 0.05156731605529785 0.017754539847373962 -0.027300389483571053 0.04155465215444565 -0.03196760639548302 -0.08330389857292175 0.0631195530295372 0.03314037248492241 0.053812116384506226 -0.1644849181175232 -0.048155151307582855 0.06573190540075302 0.10222899168729782 -0.0560116246342659 0.013120024465024471 -0.009897477924823761 0.019423479214310646 0.07658664882183075 0.10101160407066345 -0.25643542408943176 0.04344085976481438 0.004141701851040125 0.05900106579065323 0.0581597276031971 0.0015753030311316252 -0.12451190501451492 -0.09284000098705292 -0.01331989374011755 0.04497016221284866 0.04430581256747246 0.062359534204006195 0.04597126692533493 -0.030024757608771324 -0.09531713277101517 0.04116339609026909 0.12940502166748047 -0.08967804163694382 -0.04092320799827576 -0.10064597427845001 -0.01081853173673153 0.04042687639594078 -0.0853508710861206 0.0670996755361557 0.12911003828048706 -0.08042517304420471 -0.0013646507868543267 -0.06317649036645889 -0.03283336013555527 -0.03247382119297981 0.006757559720426798 0.03489420935511589 -0.03816603124141693 0.07661721110343933 -0.21195116639137268 0.024139804765582085 0.054902881383895874 -0.09106738865375519 0.12108804285526276 -0.255248486995697 -0.057625412940979004
, -0.004036571830511093 0.051432639360427856 0.14729151129722595 2.1265946270432323E-4 -0.039510101079940796 0.1590934842824936 -0.05578579008579254 -0.022600725293159485 0.01238260418176651 0.02860105410218239 -0.14104710519313812 0.08758038282394409 0.032129496335983276 0.1551288217306137 0.01584031991660595 0.05327483266592026 -0.06340327858924866 0.14781557023525238 -0.1409173607826233 -0.09346271306276321 0.05353059247136116 -0.10028577595949173 -0.049529705196619034 0.21149274706840515 -0.08624206483364105 -0.12880615890026093 -0.013180985115468502 0.05420243740081787 0.015008790418505669 -0.11283660680055618 0.001928332494571805 -0.022224338725209236 0.09091299772262573 -0.20285779237747192 -0.11225011944770813 0.0854298546910286 0.059398453682661057 -0.04943948984146118 0.05655086785554886 0.15323665738105774 0.07593009620904922 0.04480333626270294 -0.019679836928844452 -0.03458757698535919 -0.06989617645740509 0.009132546372711658 -0.21271614730358124 0.028325926512479782 0.06054867431521416 -0.15387073159217834 0.066924087703228 -0.0872746929526329 0.054794903844594955 -0.029438728466629982 0.14760376513004303 0.04090244695544243 -0.13672181963920593 0.1776367425918579 0.056664709001779556 -0.1756797879934311 -0.04201274365186691 0.07000252604484558 -2.900520048569888E-4 0.12393323332071304 0.15946532785892487 0.03267888352274895 -5.202385364100337E-4 0.07235223054885864 0.15407191216945648 -0.022146426141262054 0.03571201115846634 0.10502967983484268 -0.06663840264081955 0.03407092019915581 0.05795549228787422 0.021782221272587776 -0.13614638149738312 0.01809154637157917 -0.08320237696170807 -0.0989028736948967 0.05038094520568848 0.021358618512749672 -0.06727307289838791 0.06665278971195221 -0.004548344761133194 -0.20072010159492493 0.053967516869306564 0.09146786481142044 0.13511395454406738 -0.0202801413834095 -0.23089957237243652 -0.03750821202993393 -0.1416921615600586 0.08328082412481308 -0.07801215350627899 -0.137661874294281 0.01931004226207733 0.227479487657547 -0.16807574033737183 0.12320683896541595
Subclasses 0.09556011110544205 -0.05621679499745369 0.04496144503355026 0.014494282193481922 0.13681311905384064 0.1285424679517746 0.07159175723791122 -0.13565373420715332 -0.1306130439043045 -0.17836345732212067 -0.11509031057357788 -0.03610675036907196 -0.022205794230103493 0.20757673680782318 -0.01556405983865261 -0.03457392379641533 -0.060483478009700775 -0.02475321851670742 -0.04038648679852486 0.027699582278728485 -0.001429632306098938 -0.10158249735832214 0.001822932856157422 0.15052980184555054 0.021676721051335335 -0.11973034590482712 -0.1485908478498459 0.027938593178987503 -0.039623040705919266 0.04509689286351204 0.03849106654524803 0.03727935254573822 0.07359156012535095 -0.23689283430576324 -0.06840074062347412 0.11564675718545914 0.21281258761882782 -0.03351173922419548 0.018708378076553345 0.1424308568239212 -0.005743938498198986 -0.014422978274524212 -0.16781972348690033 -0.06149449199438095 -0.16176638007164001 -0.050251226872205734 -0.09757429361343384 0.07353903353214264 0.177011176943779 -0.05283662676811218 0.02237214520573616 -3.969406825490296E-4 0.05121408402919769 -0.10515819489955902 0.015280921012163162 0.009144903160631657 -0.05438053607940674 0.1636398583650589 -2.2993682068772614E-4 -0.04407590255141258 -0.005215094890445471 0.19340381026268005 -0.04770888015627861 0.14653995633125305 0.0029826159588992596 -0.19034406542778015 0.1952645182609558 0.1044505387544632 0.051530759781599045 0.07224025577306747 0.02776014432311058 0.06948743760585785 0.03370828181505203 0.14079567790031433 0.032610997557640076 -0.013977734372019768 -0.10557101666927338 0.04352837800979614 0.03675740212202072 0.016308311372995377 0.04348563402891159 0.04169536381959915 -0.03403190150856972 0.07908100634813309 -0.020260808989405632 0.010401066392660141 0.07407842576503754 -0.04282202199101448 -0.14348763227462769 -0.02179109863936901 -0.11343465745449066 0.09517116099596024 -0.2319210022687912 -0.1171906515955925 -0.1659451425075531 -0.10555518418550491 -0.06325270980596542 0.21229353547096252 -0.13301363587379456 -0.009281051345169544
Hot -0.012204878963530064 -0.011188353411853313 0.017740389332175255 -0.23572653532028198 0.2975706458091736 0.09502502530813217 0.12045362591743469 -0.07070616632699966 0.034072935581207275 0.01831068843603134 -0.030193772166967392 -0.015708032995462418 0.1748887300491333 0.12404285371303558 -0.011159620247781277 0.07353534549474716 -0.012792898342013359 0.023769468069076538 -0.07508016377687454 0.10913117974996567 0.05207938700914383 -0.004973168950527906 -0.06968671828508377 0.056190375238657 -0.05257229134440422 -0.01779111474752426 -0.12013790011405945 -0.1132354810833931 -0.007555970456451178 -0.09119229763746262 0.039774034172296524 -0.10373970866203308 0.05240096524357796 -0.13805563747882843 -0.05537838488817215 -0.08065525442361832 -0.017152514308691025 -0.011392364278435707 0.008135095238685608 -0.019772788509726524 -0.021703334525227547 0.03163337707519531 -0.06076040118932724 0.003045404562726617 -0.01358729973435402 0.11954272538423538 -0.004481188487261534 0.1759016513824463 -0.22686079144477844 0.01763215661048889 0.07305433601140976 -0.085995614528656 0.03353898227214813 -0.12861458957195282 0.11387656629085541 -0.16966183483600616 0.09902000427246094 -0.09993446618318558 0.0012889967765659094 0.03255516663193703 -0.014600438065826893 0.24650263786315918 0.03093932941555977 -0.0866551548242569 0.08158930391073227 0.1766553819179535 0.021627407521009445 0.13666988909244537 -0.094696044921875 0.06403757631778717 -0.006261731497943401 0.03931211307644844 -0.04293537512421608 0.25127434730529785 0.17049890756607056 -0.24572865664958954 -0.06938983500003815 0.07073637843132019 0.11375384032726288 0.11139228194952011 0.0577169694006443 -0.11671411991119385 -0.06879888474941254 -0.10932248085737228 0.025505216792225838 -0.09768044203519821 0.12275660037994385 0.14152230322360992 -0.09813795238733292 0.1023215651512146 -0.020245302468538284 -0.03211700916290283 -0.13290844857692719 -0.03729495033621788 -0.02326936274766922 -0.010916288010776043 -0.057968419045209885 0.09076686948537827 -0.03935466334223747 0.02878960408270359
an -0.11738178879022598 0.09847570955753326 0.17677801847457886 -0.10665826499462128 0.03768184781074524 -0.02213115803897381 -0.054063424468040466 -0.15838366746902466 -0.04989386349916458 0.03394578769803047 -0.11165985465049744 -0.028830179944634438 -0.06084958836436272 0.24544957280158997 -0.020235314965248108 -0.025772495195269585 -0.05947842076420784 -0.10372060537338257 -0.03780469298362732 -0.009092096239328384 0.23110277950763702 -0.23839403688907623 -0.08280905336141586 0.18652182817459106 -0.0386568121612072 -0.13902470469474792 -0.16365987062454224 0.09636584669351578 0.07545793056488037 -0.154198557138443 -0.10008648782968521 -0.1034713089466095 0.04181040823459625 -0.07632210105657578 -0.09307359904050827 0.047000352293252945 -0.08201994746923447 0.07387638837099075 0.04928915202617645 -0.032374896109104156 0.03534640744328499 0.07910465449094772 0.044851046055555344 -0.032676104456186295 0.027568049728870392 0.0879606306552887 0.061593178659677505 0.06798683851957321 0.13343429565429688 -0.1009596660733223 0.03833678737282753 -0.01519398670643568 0.08999650180339813 -0.0666498914361 -0.04692379757761955 -0.04516885429620743 -0.11647558957338333 0.013535249046981335 0.02364593930542469 -0.06115926802158356 0.0693574920296669 0.11262019723653793 0.09748118370771408 0.15705864131450653 0.07051125168800354 -0.17706012725830078 -0.2801239788532257 -0.08532337844371796 0.0026292509865015745 0.07323558628559113 0.001011220389045775 -0.027981726452708244 -0.11781076341867447 -0.15855857729911804 0.06906374543905258 0.13397713005542755 -0.2970491051673889 -0.0543069951236248 -0.019961632788181305 -0.07677581906318665 0.1039147675037384 -0.07889208942651749 -0.026627428829669952 0.13753952085971832 0.04601199924945831 -0.09563947468996048 0.0174771249294281 0.030455615371465683 -0.0181045550853014 -0.02575869672000408 0.03542003035545349 0.004113165661692619 -0.08034231513738632 -0.07348062843084335 0.03301950916647911 -0.034328777343034744 0.06160568818449974 0.026424279436469078 -0.04727289080619812 0.09862155467271805
- 0.05805748701095581 -0.011117561720311642 0.02725650928914547 0.029264291748404503 0.06919165700674057 -0.15157365798950195 -0.06941075623035431 -0.01984342373907566 -0.10082980990409851 -0.04703167825937271 -0.07558732479810715 -0.08829884231090546 -0.09811374545097351 0.16349759697914124 -0.0836092084646225 0.09939751774072647 -9.419257985427976E-4 -0.02490745298564434 -0.0928349569439888 0.11683174222707748 0.024064963683485985 -0.1508452594280243 0.0270476546138525 0.1734858900308609 -0.026594530791044235 -0.1366296112537384 -0.028044255450367928 -0.061707403510808945 -0.03605717048048973 -0.06647267937660217 -0.07344578206539154 -0.07585960626602173 0.01394667848944664 -0.2927228510379791 0.09118477255105972 0.1428193747997284 0.1880955845117569 0.038521744310855865 0.04032769799232483 0.1740882694721222 0.07475503534078598 0.012260750867426395 -0.06240558251738548 0.013945336453616619 -0.010886463336646557 0.08809486776590347 -0.03794986382126808 0.018644358962774277 0.14282304048538208 -0.07562314718961716 0.045180995017290115 0.03892868012189865 -0.03386653587222099 -0.00407975260168314 0.07200971990823746 -0.02263624593615532 -0.19040800631046295 0.05484289675951004 -0.02500683255493641 -0.04325846955180168 -0.1686154454946518 0.23295710980892181 -0.05861419439315796 0.13172276318073273 0.03247171640396118 0.1243397444486618 -0.04906025156378746 -0.07113924622535706 0.23728406429290771 0.0856543555855751 0.09971791505813599 -0.04466244578361511 -0.19506487250328064 0.11159615218639374 0.10279695689678192 -0.03514759987592697 -0.09174269437789917 -0.03977052867412567 0.03923524171113968 -0.055195774883031845 0.04360612854361534 0.011069009080529213 -0.08207627385854721 0.08603092283010483 -0.036385610699653625 -0.050754155963659286 0.05971015617251396 0.181086465716362 -0.005281516350805759 0.022041499614715576 -0.005153275094926357 -0.002379286801442504 -0.25430822372436523 -0.08022898435592651 -0.04507230594754219 -0.03053891472518444 -0.1577349454164505 0.05024394392967224 -0.17214897274971008 0.1254187971353531
MozzarellaTopping -0.007856507785618305 -0.022125862538814545 -0.11979518085718155 0.0014539906987920403 0.19661779701709747 0.14435461163520813 0.13465529680252075 -0.12980474531650543 -0.03730763867497444 0.13948296010494232 -0.11364196240901947 -0.05744384974241257 0.019250787794589996 0.12947770953178406 -0.18544137477874756 0.06798514723777771 -0.08748234808444977 0.03203704208135605 -0.0635339766740799 0.04025197774171829 0.005736862774938345 0.00881363544613123 -0.03185673803091049 -0.0026587811298668385 0.10765864700078964 -0.05439230799674988 -0.04264095425605774 0.03853132948279381 -0.01368618756532669 -0.17462152242660522 -0.014189766719937325 -0.02511107549071312 0.10033943504095078 -0.23134233057498932 0.05917442962527275 0.07378920912742615 0.09594309329986572 0.13949565589427948 0.045973967760801315 0.14516136050224304 -0.010727239772677422 0.06939133256673813 -0.12776045501232147 0.15972432494163513 -0.09826858341693878 0.2358427345752716 -0.23053549230098724 0.2236538976430893 0.08902767300605774 0.03402264416217804 0.044605184346437454 -0.15075482428073883 -0.05868629738688469 0.04760471731424332 -0.0785498172044754 -0.029516005888581276 -0.1351173222064972 0.01872052438557148 -0.08037033677101135 -0.07465197145938873 0.10502799600362778 0.2653810381889343 -0.10589807480573654 0.1398468315601349 0.021637635305523872 0.01746034435927868 -0.1597934365272522 -0.058524515479803085 0.1386488378047943 0.0016993482131510973 -0.09276962280273438 0.06866122782230377 0.052630942314863205 0.021802663803100586 0.0895048975944519 -0.11143413931131363 0.04395843297243118 0.017285587266087532 0.1132592260837555 0.10027465969324112 0.07466616481542587 -0.02774207293987274 -0.05096322298049927 -0.024645807221531868 -0.0885569378733635 0.10338404774665833 0.057980939745903015 -0.026080451905727386 -0.06783436983823776 -0.023452995344996452 0.009878707118332386 -0.0034867182839661837 0.0060180299915373325 -0.09011523425579071 0.05383531004190445 -0.02941799908876419 0.048601552844047546 0.17725831270217896 -0.07014201581478119 -0.06700360029935837
. 0.056606583297252655 0.04137372225522995 0.08843646198511124 -0.15479274094104767 0.020865684375166893 0.13650120794773102 0.014924303628504276 -0.13453085720539093 -0.02392439730465412 -0.10935605317354202 -0.09458006918430328 0.0627693310379982 -0.00621607294306159 0.16148872673511505 0.001870443462394178 -0.12463565170764923 0.026990527287125587 -0.09961026161909103 -0.06058282405138016 0.006740260869264603 0.04351015388965607 -0.17260199785232544 -0.06435834616422653 0.24866381287574768 -0.13713647425174713 -0.1540231853723526 -0.005457701627165079 -0.006492763292044401 0.04827383905649185 -0.016839860007166862 0.025361908599734306 -0.13884785771369934 0.01162681169807911 -0.18823286890983582 -0.0026283313054591417 0.09886865317821503 -0.05590091273188591 0.04900440201163292 0.042091891169548035 0.29772281646728516 0.08916570991277695 0.04475737363100052 -0.04601016640663147 0.09059671312570572 -0.13634957373142242 -0.051881205290555954 -0.10250620543956757 -0.03015214577317238 0.023027334362268448 -0.11240124702453613 -0.004268068354576826 0.06709206104278564 -0.06469500809907913 0.0339573435485363 0.011480025015771389 -0.006780180148780346 -0.17572471499443054 0.30100110173225403 0.13230304419994354 -0.15376102924346924 0.026554955169558525 0.07124903798103333 0.010797485709190369 0.1588727831840515 0.04155907407402992 -0.1489509493112564 0.026284849271178246 0.04541443660855293 0.17113882303237915 0.013034788891673088 0.03532177209854126 0.07350365072488785 0.08599559217691422 -0.006695657502859831 -0.0743156149983406 0.1270645260810852 -0.08343860507011414 -0.07778986543416977 0.0029279489535838366 -0.17766067385673523 0.1407010555267334 0.09309349954128265 -0.06054353341460228 -0.039656657725572586 -0.10891350358724594 -0.06797438114881516 0.008881235495209694 -0.016208142042160034 -0.04075545817613602 0.009053063578903675 -0.10315873473882675 -0.03993659093976021 -0.2011575549840927 0.025841670110821724 -0.04118587076663971 -0.07193615287542343 -0.044638492166996 0.10679532587528229 -0.07364241778850555 0.05146665871143341
Herb -0.14191587269306183 0.0850653350353241 -0.0483802892267704 -0.300349622964859 0.3634224832057953 0.1290764957666397 0.08467189222574234 -0.17454572021961212 -0.08598512411117554 -0.1124359667301178 -0.1029774397611618 -0.001585865393280983 -0.11884823441505432 0.10053036361932755 -0.008681073784828186 0.04013890027999878 -0.021672625094652176 -4.0832324884831905E-4 -0.08094943314790726 0.04449205845594406 0.07430382072925568 -0.02458105981349945 0.03352274373173714 0.08642937242984772 -0.01996316947042942 -0.06924937665462494 -0.07028793543577194 -0.06944191455841064 0.05686204880475998 -0.03427543118596077 -0.01659071072936058 -0.02206186018884182 0.017205525189638138 -0.10517371445894241 -0.10247261822223663 0.046587441116571426 0.20800378918647766 0.06543391942977905 0.0846722200512886 0.10508225858211517 0.08248817920684814 0.012939593754708767 -0.17799659073352814 -0.02149895951151848 -0.15495213866233826 0.15451902151107788 -0.23895962536334991 0.27706775069236755 -0.0358615480363369 -0.053796909749507904 0.028242576867341995 -0.02368852123618126 -0.004037500359117985 -0.023374732583761215 0.03380665183067322 -0.027594951912760735 -0.02379552647471428 -0.10901502519845963 0.003558526048436761 -0.03598633036017418 -0.10517200082540512 0.15074267983436584 -0.027115680277347565 0.0211282130330801 0.010048695839941502 0.00558509910479188 -0.08039823174476624 0.038028281182050705 0.047361597418785095 0.09872511774301529 -0.06521891057491302 0.04411056265234947 -0.10579680651426315 0.20216451585292816 0.06865867227315903 -0.10376196354627609 -0.03516475111246109 0.08310811966657639 0.07533703744411469 0.14289362728595734 -0.0060976124368608 0.06494350731372833 0.12065353989601135 -0.0852343738079071 -0.013749849982559681 -0.03429430350661278 -0.02452976070344448 0.0025431388057768345 -0.10288716852664948 0.04364247992634773 -0.05318894609808922 0.01871301978826523 -0.15088362991809845 -0.04638117924332619 -0.010944767855107784 0.0702182725071907 -0.06333044171333313 0.08270734548568726 -0.07345671206712723 0.089198537170887
as 0.05371509864926338 -0.00822449941188097 0.10914987325668335 0.04605551436543465 0.06433495879173279 -0.008938993327319622 -0.026176419109106064 -0.027234027162194252 -0.0507875494658947 -0.05459511652588844 -3.4858949948102236E-4 0.04541236534714699 0.04984529688954353 0.24970567226409912 0.004445604048669338 0.02535991556942463 0.010850751772522926 0.05458187684416771 -0.04196599870920181 0.05602939426898956 -0.05069955438375473 -0.12341809272766113 0.12447882443666458 0.19153672456741333 0.03373827040195465 -0.10414408147335052 -0.07658883929252625 -0.056105662137269974 -0.01672525331377983 -0.1179821714758873 -0.0023118213284760714 0.07684158533811569 -0.06118573248386383 -0.2765834629535675 2.771764120552689E-4 0.1945340484380722 0.21591155230998993 0.04799966141581535 0.11638965457677841 0.25378599762916565 0.02757376804947853 0.0667564645409584 -0.07504389435052872 -0.05156761035323143 -0.08561230450868607 0.001070436672307551 0.024717697873711586 0.1096629723906517 -0.01870892010629177 -0.12592589855194092 -0.024961767718195915 0.022440606728196144 0.07265418767929077 -0.02567155659198761 0.008771123364567757 0.04830965772271156 -0.16613169014453888 0.04528040066361427 -0.033314500004053116 -0.15574701130390167 -0.04920811578631401 0.051540814340114594 0.05275098606944084 0.0953151136636734 0.1809348165988922 -0.12963460385799408 -0.06670324504375458 0.1540345698595047 0.2286791205406189 0.007594441995024681 -0.016081415116786957 -0.09924124926328659 -0.09005768597126007 0.07332521677017212 -0.02070843055844307 0.021873682737350464 -0.171352818608284 0.022580251097679138 -0.11135385185480118 -0.19285395741462708 -0.041055828332901 -0.024256788194179535 -0.02271500788629055 0.040662482380867004 -0.011764166876673698 -0.10238991677761078 0.059200745075941086 0.0025507058016955853 -0.0592634342610836 1.5913719835225493E-5 -0.06373583525419235 0.009699113667011261 -0.2947394549846649 -0.11151278764009476 -0.09809913486242294 -0.1616065502166748 -0.05889388546347618 0.060014184564352036 -0.049194712191820145 0.06523396819829941
2 -0.08380011469125748 0.005675558000802994 0.10257470607757568 0.16973386704921722 0.05396100878715515 0.14985115826129913 0.12376143783330917 -0.07885412871837616 0.054369956254959106 0.056715868413448334 -0.01851547323167324 -0.01674613729119301 -0.06630941480398178 0.11629273742437363 0.11212112754583359 0.09783583879470825 -0.03463894501328468 0.07173991203308105 -0.1409711241722107 0.007403216790407896 -0.04651446267962456 -0.039550650864839554 0.10152824223041534 0.2267667055130005 0.1108342707157135 -0.18996143341064453 -0.2174760401248932 0.05250617861747742 0.06033669039607048 -0.1834326833486557 0.04229235276579857 -0.02010815031826496 0.1086374819278717 -0.3256680369377136 -0.04991975426673889 0.09553483873605728 0.05913057178258896 -0.057348351925611496 0.0802871584892273 0.16607949137687683 -0.026727134361863136 -0.03242530673742294 0.03472980484366417 0.023498550057411194 -0.10886088013648987 0.07138825207948685 0.005396889057010412 -0.01408790796995163 -0.023663228377699852 0.034504927694797516 -0.043927378952503204 -0.09337957948446274 -0.05588679760694504 0.005313009489327669 0.1250039041042328 0.029942268505692482 -0.13270710408687592 0.09076513350009918 -0.013308461755514145 -0.1408991515636444 0.04985703527927399 0.10257746279239655 -0.08881600201129913 0.036605071276426315 0.015606965869665146 -0.0017752234125509858 0.05475635826587677 -0.07034033536911011 0.08591784536838531 -0.08009639382362366 0.14813973009586334 -6.512979744002223E-4 0.09695863723754883 0.09818325936794281 0.07367908954620361 -0.019262198358774185 -0.009724032133817673 -0.06688181310892105 -0.21204356849193573 -0.08422736078500748 0.020480696111917496 -0.028151860460639 -0.07603741437196732 -0.03076200932264328 -0.02181932143867016 0.005104386247694492 0.047834862023591995 -0.09962676465511322 -0.051555532962083817 -0.14142033457756042 -0.11727474629878998 0.09766296297311783 -0.017445070669054985 -0.04755092039704323 -0.04540960118174553 -0.28154686093330383 0.08787215501070023 0.20694902539253235 -0.04203775152564049 0.10399490594863892
